701 100
pain 0.364233 0.12795807 -0.046513032 -0.018022645 -0.51975274 -0.08489024 -0.38397962 -0.14689152 -0.30134106 -0.002920526 -0.113532074 -0.006975764 0.26134655 -0.16253534 -0.21905947 0.20095766 0.22158124 -0.27013817 0.030257229 0.34587494 -0.14058213 -0.31280798 0.1367149 0.035995934 0.010305316 -0.41559958 0.14451371 0.17806628 -0.1812857 -0.073899545 0.38114268 0.15937984 -0.047313195 -0.3965473 -0.04474897 -0.18310599 -0.57989085 0.055086046 -0.12806173 0.37285456 0.11077685 0.25868854 -0.14482883 0.10565477 -0.2196945 0.019498333 -0.041438486 -0.1714791 -0.1853387 0.31624344 -0.34381393 0.13160318 0.04227636 -0.08098753 -0.4523034 0.43833873 -0.10045887 -0.15636474 0.027266383 0.122860506 -0.45689192 -0.11025541 0.029314633 -0.033091877 -0.18060295 0.3270679 0.13914096 0.35485297 -0.45156223 -0.18879196 0.09133528 0.027206583 -0.21054217 -0.15659009 -0.042882517 0.016939357 -0.09446183 -0.21542342 0.03749037 0.06037302 -0.22171476 -0.27348498 -0.29215243 -0.20344697 0.3199805 -0.14182615 -0.32149628 -0.40280253 0.83753926 -0.023816727 0.06339148 -0.3962686 0.22098932 0.13075124 0.20525849 0.18809988 0.10680652 -0.01605991 0.34042633 0.56071055
in 0.3537269 0.13229863 -0.045292757 -0.01610526 -0.51768565 -0.08585048 -0.38859925 -0.14095181 -0.29985633 -0.01443361 -0.11689046 -0.009146354 0.25286055 -0.1654527 -0.21156392 0.18555218 0.229921 -0.26281238 0.025438162 0.33531013 -0.14701852 -0.31216612 0.1372549 0.032154884 0.008101739 -0.40814725 0.14337498 0.1710882 -0.17849228 -0.07386347 0.3779553 0.15578698 -0.041669518 -0.37933332 -0.039800607 -0.17334783 -0.5668534 0.052394103 -0.12290495 0.3706405 0.10498446 0.253157 -0.14742227 0.1000878 -0.20915774 0.020711271 -0.040644668 -0.17469636 -0.1899794 0.30980945 -0.33513007 0.13134824 0.04697282 -0.06641666 -0.44405103 0.4303869 -0.10434898 -0.1552088 0.014251558 0.1270435 -0.45470843 -0.11066948 0.034755178 -0.030260472 -0.18449508 0.32162586 0.1298643 0.34742883 -0.44317588 -0.18198179 0.09840235 0.0340415 -0.20855753 -0.16294348 -0.03991015 0.014844758 -0.08523452 -0.21669663 0.042242166 0.06075039 -0.22430933 -0.2601829 -0.29169378 -0.20489492 0.31546453 -0.14592086 -0.32377535 -0.3980153 0.8227124 -0.024261512 0.065097 -0.38925534 0.2277461 0.13006586 0.2069492 0.17727426 0.10982227 -0.013202192 0.32655334 0.55236495
of 0.429556 0.15832615 -0.055264276 -0.03198939 -0.62345916 -0.10670301 -0.4682845 -0.17608722 -0.3577358 -0.0088847885 -0.14625765 -0.0069739134 0.3041417 -0.19234042 -0.2556178 0.23354116 0.27134505 -0.31205454 0.038202696 0.40166807 -0.1790032 -0.37192744 0.1581466 0.04145536 0.008237689 -0.4840956 0.17860535 0.20072351 -0.22350323 -0.08820049 0.45503134 0.19961016 -0.051676646 -0.46484792 -0.049674742 -0.21716453 -0.69750917 0.06447581 -0.1538734 0.44180334 0.12413667 0.30315194 -0.16787615 0.11712097 -0.2568053 0.024846714 -0.054610707 -0.2085006 -0.22732545 0.3659893 -0.39616746 0.16486393 0.06417531 -0.087228686 -0.5364305 0.5134757 -0.122736834 -0.18356751 0.023635766 0.1584006 -0.54495096 -0.13421926 0.029417014 -0.04656873 -0.21747856 0.38778955 0.16519833 0.41463208 -0.54625064 -0.21970308 0.113365896 0.036147345 -0.25294816 -0.19435203 -0.05132699 0.012783375 -0.11383735 -0.25721705 0.04328471 0.07196728 -0.26098606 -0.31786767 -0.349302 -0.2389935 0.37832886 -0.16775915 -0.3839853 -0.47907832 0.9837133 -0.026487594 0.070589416 -0.4645295 0.270177 0.15083744 0.2503203 0.21007991 0.13186409 -0.024034128 0.39824185 0.6696354
Severe 0.11241919 0.043799374 -0.012433834 -0.008511412 -0.16751046 -0.03107983 -0.124055125 -0.041202903 -0.09499387 0.0023223963 -0.036516223 0.0016348701 0.08338903 -0.053645782 -0.070609175 0.06716222 0.06801828 -0.08971622 0.0122032855 0.10998111 -0.044455063 -0.09662622 0.043786064 0.011445583 0.0039004423 -0.13502553 0.040840287 0.05775053 -0.053924296 -0.020828566 0.1288648 0.04903042 -0.020213876 -0.12524854 -0.012613307 -0.060557414 -0.18300463 0.012385445 -0.034715943 0.12115578 0.033276767 0.075925276 -0.046139613 0.035293758 -0.07371971 0.0046534315 -0.016287558 -0.057708755 -0.05434202 0.10637295 -0.1095637 0.044229247 0.013227729 -0.031118698 -0.14215086 0.14477155 -0.032028187 -0.054053634 0.005718598 0.042135872 -0.14635305 -0.041392196 0.012766308 -0.013101191 -0.053973574 0.1042218 0.0454775 0.11268361 -0.14297326 -0.058539875 0.036589205 0.0018795806 -0.06915627 -0.051968504 -0.016982693 0.00262109 -0.03288079 -0.06708641 0.017797964 0.019506108 -0.07106109 -0.08855021 -0.09648901 -0.065534204 0.10662239 -0.0468371 -0.10800309 -0.13056424 0.26722366 -0.0052599637 0.024492402 -0.12181619 0.07258115 0.036708184 0.071977586 0.064012505 0.034807134 -0.0034361074 0.10565669 0.17530806
muscle 0.22075419 0.07549516 -0.03230903 -0.012940371 -0.31848595 -0.05670292 -0.24002907 -0.091996245 -0.1836276 -0.0072449953 -0.07249867 -0.009604402 0.15270014 -0.09336132 -0.1328445 0.12136573 0.14147565 -0.1557836 0.012354054 0.20984703 -0.08932206 -0.18808581 0.078122795 0.026282439 0.005806789 -0.24924633 0.08190443 0.10214207 -0.10932139 -0.046197984 0.23324136 0.094725 -0.0259311 -0.23139879 -0.025082022 -0.112285025 -0.3559558 0.032226566 -0.0736706 0.22911942 0.05956453 0.14965397 -0.085062236 0.06408843 -0.13442679 0.012525371 -0.023905873 -0.11104613 -0.114738144 0.19020781 -0.20090593 0.07951616 0.03289476 -0.044081032 -0.27208638 0.2670114 -0.065063156 -0.089633845 0.008629823 0.08291411 -0.27532363 -0.06909385 0.015743364 -0.018667085 -0.108296804 0.19517054 0.087644294 0.21420024 -0.2748945 -0.111991405 0.053987462 0.018295726 -0.13175675 -0.102778904 -0.03068265 0.0067072073 -0.052961104 -0.13650805 0.0279435 0.03611245 -0.13420317 -0.16474544 -0.18011773 -0.12426897 0.18983027 -0.08190796 -0.19008507 -0.24545991 0.5053859 -0.013870444 0.031136084 -0.23268363 0.13748112 0.0774942 0.12614605 0.10715634 0.062478915 -0.013506244 0.19927938 0.3377858
Muscle 0.23999019 0.08509909 -0.031107098 -0.009801503 -0.3504234 -0.05894679 -0.26553714 -0.10272039 -0.20672557 -0.009541073 -0.08427115 -0.0027157995 0.16883637 -0.11046481 -0.14382158 0.124309674 0.15688041 -0.180479 0.01650509 0.22231811 -0.0981311 -0.2134312 0.085495465 0.02801132 0.009526463 -0.27770445 0.09346936 0.11418985 -0.12783547 -0.050469976 0.25696325 0.11031103 -0.02803915 -0.25894076 -0.036958333 -0.120751075 -0.3932303 0.037282202 -0.08077767 0.24553135 0.07436705 0.16718055 -0.09546268 0.0630564 -0.1403133 0.01631201 -0.028628802 -0.11971702 -0.12650819 0.20563778 -0.21978562 0.089935765 0.03835476 -0.04604249 -0.29694554 0.29423624 -0.07588879 -0.10114909 0.01780578 0.086854726 -0.30206582 -0.07549772 0.02639139 -0.027086765 -0.12552102 0.21522616 0.08703086 0.23308985 -0.30447787 -0.12270957 0.0611359 0.018252324 -0.14665419 -0.11458969 -0.030177105 0.005897573 -0.059257433 -0.14832863 0.028851569 0.041559223 -0.14824998 -0.18197544 -0.20310579 -0.13072108 0.21700493 -0.089632474 -0.20752512 -0.27064684 0.5500855 -0.018655922 0.040458277 -0.2584674 0.15124087 0.08490893 0.14255525 0.12450161 0.069103226 -0.005934399 0.22047527 0.3716233
Pain 0.2015267 0.07721139 -0.030042995 -0.008738374 -0.29123247 -0.05558169 -0.21985354 -0.07680209 -0.16910069 -0.009388043 -0.06684272 -0.0014416295 0.1454833 -0.09700226 -0.11538117 0.11358301 0.12522373 -0.15381865 0.018174745 0.18548281 -0.08975281 -0.17764615 0.0719807 0.020380167 0.0025573932 -0.23054384 0.07912331 0.10406923 -0.10721581 -0.03705495 0.21743761 0.09593518 -0.023351278 -0.21748523 -0.02763535 -0.10838333 -0.3310517 0.027823236 -0.06702586 0.21530686 0.061583214 0.14361149 -0.080800295 0.052863955 -0.12022539 0.008992079 -0.022507578 -0.09327611 -0.10240602 0.17744394 -0.19150765 0.080709614 0.027734088 -0.03827649 -0.2525102 0.25083432 -0.05657707 -0.083416075 0.0038551516 0.075975604 -0.2607057 -0.06520809 0.013643625 -0.023286281 -0.10785034 0.17872402 0.07872624 0.19534718 -0.25100222 -0.098607175 0.054468755 0.02196226 -0.11795634 -0.097131304 -0.02048033 0.010762877 -0.04598923 -0.12039958 0.028420357 0.039365176 -0.12595363 -0.14862123 -0.16321485 -0.1187084 0.17513688 -0.08285185 -0.18686262 -0.23119836 0.47132275 -0.018459883 0.03473562 -0.2163243 0.12915587 0.0790924 0.1154368 0.09705459 0.06053138 -0.005203615 0.19405782 0.32148322
my 0.27554 0.09546208 -0.040807996 -0.013603968 -0.3942093 -0.070310734 -0.29538673 -0.10628699 -0.2319699 -0.0026175585 -0.09411801 -0.004878884 0.19593237 -0.121353365 -0.16182949 0.14697866 0.1704952 -0.20509891 0.02731091 0.25974864 -0.10747302 -0.2330484 0.09714739 0.027556509 0.01115924 -0.30720192 0.1044203 0.12775138 -0.14183278 -0.04832394 0.29130274 0.12195768 -0.0311869 -0.29875743 -0.030780451 -0.14007728 -0.44328922 0.044902876 -0.0924959 0.28165936 0.08120578 0.18791318 -0.11070116 0.07318389 -0.1650794 0.016500518 -0.03838366 -0.12893745 -0.14615464 0.23687916 -0.2578377 0.1028282 0.042607296 -0.052692093 -0.3339367 0.32763827 -0.08271833 -0.12240695 0.011668193 0.09880862 -0.347702 -0.08337979 0.020123849 -0.022502309 -0.13809203 0.2494294 0.09840422 0.26219687 -0.34361237 -0.14003682 0.07385111 0.019867668 -0.15633819 -0.119634055 -0.033163033 0.010634934 -0.071262725 -0.16588055 0.033336576 0.04695503 -0.17329833 -0.20043315 -0.2241524 -0.14936577 0.24031962 -0.11286127 -0.24373642 -0.3077203 0.6293332 -0.02352809 0.04990292 -0.29927 0.16836865 0.09793867 0.15394144 0.14115001 0.078886226 -0.008425758 0.2512039 0.42351863
76948002 0.10221579 0.04064988 -0.013499169 -0.0028643776 -0.15021496 -0.020555096 -0.11641884 -0.042633902 -0.0875479 0.0032337334 -0.032784726 -0.0070432145 0.07342983 -0.048590805 -0.057037782 0.057716407 0.06876521 -0.07211008 0.014742343 0.09687486 -0.035408728 -0.091328494 0.03446688 0.012117746 0.006007114 -0.119485274 0.037303355 0.05555635 -0.05106464 -0.021264391 0.11539595 0.049443603 -0.018383853 -0.11492474 -0.008535732 -0.046957284 -0.16575709 0.015384082 -0.03535751 0.10967363 0.03447485 0.077066146 -0.041469194 0.032637104 -0.05909742 0.009063974 -0.008041825 -0.04638396 -0.053284705 0.09632964 -0.10312428 0.035527732 0.007699559 -0.025266614 -0.13322571 0.12959173 -0.03339483 -0.043519057 0.0043670572 0.032804817 -0.13277413 -0.038919836 0.012134689 -0.011577793 -0.04745813 0.09725429 0.039626587 0.100190945 -0.12377893 -0.06003421 0.029197529 0.006888386 -0.0645636 -0.04262733 -0.010175315 0.007721173 -0.025621166 -0.058450587 0.016309535 0.023154 -0.067438945 -0.07311184 -0.08880666 -0.05669036 0.091905795 -0.04195074 -0.087650046 -0.11933661 0.23500426 -0.0075695864 0.01325864 -0.11457034 0.06490684 0.03155323 0.057499994 0.053083193 0.03121808 0.0008177436 0.10272249 0.16358103
and 0.31419253 0.10877841 -0.03658907 -0.016643725 -0.44987968 -0.08220678 -0.33719486 -0.12711783 -0.25440344 -0.008201496 -0.10222661 -0.0042397855 0.22140574 -0.13894577 -0.18238729 0.164022 0.20343564 -0.23899926 0.026083406 0.2976437 -0.13391384 -0.27487823 0.1156486 0.032483388 0.009013226 -0.35828906 0.11946307 0.14154418 -0.1572288 -0.053490087 0.3401762 0.14153717 -0.03903308 -0.33270538 -0.03950908 -0.15774137 -0.50939727 0.046746075 -0.105551556 0.3184679 0.098407 0.22027849 -0.1270341 0.08098825 -0.18246648 0.015112246 -0.045828316 -0.15303597 -0.15772621 0.26894298 -0.29269993 0.11572192 0.043273322 -0.05897621 -0.3896232 0.37309387 -0.0878773 -0.13780995 0.014934702 0.10582753 -0.39656106 -0.10170234 0.0212297 -0.031999487 -0.15508139 0.27839002 0.12122522 0.30969357 -0.3951957 -0.15334837 0.087427005 0.02840292 -0.18348354 -0.14103055 -0.040147766 0.009612677 -0.07396149 -0.19188976 0.042610146 0.05785371 -0.19106945 -0.23485507 -0.25619966 -0.1782131 0.27087283 -0.12975328 -0.28657648 -0.34865987 0.72106916 -0.02177123 0.055247154 -0.3362365 0.19257057 0.110394195 0.1804525 0.15480116 0.09917098 -0.013800874 0.2841493 0.4876513
limb 0.18757115 0.071966246 -0.030897254 -0.015539572 -0.28217706 -0.051905137 -0.2084279 -0.07346003 -0.16693693 -0.0025574034 -0.06507869 -0.009390459 0.13517429 -0.09276163 -0.11318121 0.10105555 0.12971841 -0.13941768 0.0141311195 0.18161221 -0.07763468 -0.16363484 0.07498636 0.020329945 0.008476842 -0.21870151 0.08048121 0.09801131 -0.102001816 -0.039753076 0.20463577 0.092950225 -0.01972348 -0.21124403 -0.017343437 -0.10382917 -0.31260347 0.034501046 -0.07366165 0.20399477 0.057488047 0.13900375 -0.07381938 0.05625614 -0.11339854 0.014927188 -0.0275387 -0.09696832 -0.1082985 0.17053123 -0.18032329 0.06713849 0.022253018 -0.040221382 -0.24772996 0.24087232 -0.060681798 -0.08080416 0.007197633 0.06699583 -0.25273618 -0.05659667 0.0197354 -0.0128389085 -0.098461226 0.17002092 0.06944416 0.18472934 -0.24804182 -0.099381626 0.0556651 0.021922722 -0.11881686 -0.088093184 -0.021318533 0.010754329 -0.049607802 -0.123688355 0.02153494 0.035948005 -0.12529477 -0.14190446 -0.1593531 -0.10782097 0.16629077 -0.07271399 -0.1807423 -0.22241245 0.45661333 -0.011027971 0.031180566 -0.21396796 0.12577681 0.07093572 0.109743774 0.101340376 0.065312974 -0.0042652264 0.1839747 0.3079979
to 0.38248453 0.1331876 -0.05019663 -0.023618689 -0.55870754 -0.09110258 -0.41528818 -0.16025719 -0.32433665 -0.0061962167 -0.12979995 -0.006943727 0.27543837 -0.1772697 -0.23190364 0.20791642 0.24345672 -0.28636596 0.032465957 0.36553118 -0.15770349 -0.33531657 0.13990033 0.037254263 0.014351464 -0.44650307 0.15657677 0.18696666 -0.19631165 -0.0740845 0.40990552 0.16883466 -0.04960815 -0.4214 -0.041899018 -0.19498287 -0.6281412 0.057377614 -0.13989879 0.39899698 0.1125211 0.27574262 -0.15899761 0.112581484 -0.22692245 0.01869907 -0.046958327 -0.18615007 -0.20517851 0.32777333 -0.3612911 0.14570706 0.06570036 -0.07611848 -0.484046 0.46431786 -0.11558018 -0.17279483 0.025934132 0.13076931 -0.48681092 -0.12698789 0.034863733 -0.032824807 -0.19906935 0.35104 0.14505404 0.37851456 -0.487988 -0.19637306 0.106058195 0.02802633 -0.22079201 -0.17335147 -0.05429265 0.010423132 -0.09202385 -0.23788838 0.04007472 0.06701269 -0.2397599 -0.28184202 -0.31608236 -0.21147296 0.34545076 -0.15127847 -0.3512138 -0.43188682 0.8941647 -0.025539432 0.063121945 -0.41622734 0.23811002 0.1345081 0.2171058 0.19314496 0.12030198 -0.016873326 0.3597372 0.5941808
lower 0.17881928 0.071285695 -0.03201115 -0.011120463 -0.27221048 -0.044517577 -0.20739952 -0.07871572 -0.16419147 -0.0070441016 -0.060881186 -0.0070921564 0.12949608 -0.09088328 -0.11409525 0.10529331 0.12406785 -0.13713671 0.018544018 0.1794974 -0.07913458 -0.16443792 0.06999243 0.022043392 0.004629987 -0.21770726 0.06978819 0.0961172 -0.09072207 -0.035337403 0.19462113 0.0797712 -0.025749972 -0.1974746 -0.022598779 -0.09255917 -0.30582204 0.02842755 -0.07001476 0.1971211 0.052642196 0.13065416 -0.07706561 0.0566755 -0.113977306 0.013633278 -0.018155087 -0.08658333 -0.10173599 0.16853468 -0.18326993 0.06853483 0.024050767 -0.03894551 -0.23388095 0.23268168 -0.055718683 -0.08512924 0.010375513 0.07008747 -0.2414873 -0.061585087 0.017879343 -0.013500234 -0.09268127 0.16362861 0.0654577 0.18299825 -0.22923456 -0.09474375 0.047128562 0.018980434 -0.11330227 -0.08778607 -0.023849253 0.007717154 -0.042779557 -0.112369575 0.027930327 0.026953535 -0.12050638 -0.13833328 -0.15757878 -0.10517316 0.16717355 -0.07219002 -0.17542122 -0.21178086 0.43458244 -0.013395429 0.03827802 -0.20748413 0.11619737 0.07443798 0.10816091 0.09533013 0.062239513 -0.006305211 0.172395 0.29733655
severe 0.12268179 0.044517722 -0.016522372 -0.0047476906 -0.17742653 -0.027229214 -0.12946679 -0.045160875 -0.09943675 0.00042655616 -0.040576674 -0.0062248735 0.086822785 -0.05552536 -0.065475576 0.07095253 0.070256025 -0.08712211 0.011959932 0.114362605 -0.05052091 -0.1073236 0.04325566 0.01332143 0.0055054557 -0.13877417 0.048639033 0.057889264 -0.061256137 -0.022959748 0.13014619 0.05632204 -0.020326866 -0.1354808 -0.009152742 -0.055063516 -0.19027312 0.01155929 -0.040196348 0.121066056 0.035570685 0.08783406 -0.047860473 0.035952285 -0.07595351 0.010370325 -0.018176839 -0.05337947 -0.064483166 0.10549247 -0.11146197 0.04945443 0.012774603 -0.027726673 -0.14988479 0.14949478 -0.03336454 -0.052760486 0.011273779 0.043363273 -0.14787248 -0.043259334 0.008272539 -0.010109874 -0.06459774 0.11133841 0.049114566 0.11237591 -0.14451572 -0.06545875 0.035659313 0.0053604636 -0.06510985 -0.052627344 -0.0191159 0.0007944653 -0.034108788 -0.07734161 0.018492132 0.024323728 -0.0692756 -0.08597897 -0.09792836 -0.07152024 0.10030886 -0.043002833 -0.10750699 -0.13023297 0.2799112 -0.011139991 0.021069227 -0.1314389 0.07070631 0.042018387 0.07141783 0.06488161 0.03145355 -0.00066285237 0.10757745 0.18885039
pains 0.19187717 0.07378827 -0.023968784 -0.0070942217 -0.2779876 -0.053183414 -0.21134014 -0.07506095 -0.16094445 -0.006002848 -0.065606475 -0.006697786 0.14325784 -0.0891069 -0.116609134 0.10044239 0.118929066 -0.14674352 0.021039233 0.17892388 -0.08057401 -0.17546427 0.075960316 0.018037017 0.009396559 -0.22709166 0.07434096 0.08585662 -0.10270875 -0.04061977 0.20220818 0.0906699 -0.024235275 -0.20759141 -0.026601192 -0.094547406 -0.31746548 0.032127924 -0.06361521 0.19602351 0.06149374 0.13381092 -0.076811895 0.05621656 -0.11930967 0.012765455 -0.027441153 -0.09902239 -0.09908759 0.17070922 -0.18328533 0.07318595 0.032441217 -0.036580127 -0.24492057 0.22821766 -0.0602867 -0.08854855 0.012201066 0.0743432 -0.24419628 -0.06512885 0.019756528 -0.016135894 -0.10197528 0.17624831 0.07300641 0.18391122 -0.24042894 -0.09708403 0.053009097 0.017386716 -0.11416879 -0.08871146 -0.02116035 0.006724084 -0.054025806 -0.11912012 0.021218706 0.03237479 -0.11517593 -0.14863037 -0.16190799 -0.114034645 0.16667596 -0.08163535 -0.17809805 -0.21775056 0.45231625 -0.01099682 0.029495584 -0.21037558 0.120785125 0.06776354 0.11542125 0.100820735 0.061212063 -0.009721817 0.17796113 0.30669358
upper 0.22077723 0.077883914 -0.026045386 -0.022347542 -0.31538168 -0.05834368 -0.2314301 -0.08306013 -0.1874633 -0.007072981 -0.07288742 0.000622333 0.15304019 -0.09824254 -0.14299361 0.11973452 0.14427447 -0.1727106 0.024331713 0.20193662 -0.08452084 -0.19572356 0.08169851 0.016918823 0.012776811 -0.2432203 0.08797645 0.1086459 -0.10963855 -0.045823295 0.23806758 0.10347908 -0.02202834 -0.23999667 -0.024106193 -0.114253946 -0.36210808 0.042274505 -0.07481352 0.22582553 0.073277496 0.15828255 -0.09268835 0.06623703 -0.1316529 0.013062156 -0.0280673 -0.102309905 -0.10772015 0.18209301 -0.19984224 0.07645383 0.03088683 -0.044393897 -0.27747396 0.2573626 -0.074107856 -0.102847755 0.013204967 0.08162742 -0.27354994 -0.07142703 0.014055811 -0.01581909 -0.10905867 0.20027167 0.07858409 0.2186976 -0.28231016 -0.112054996 0.052640513 0.014431159 -0.12081761 -0.10963919 -0.024633415 0.003888316 -0.046944376 -0.14287102 0.029138716 0.039555512 -0.13326031 -0.16284949 -0.17712164 -0.12748161 0.19534397 -0.08931509 -0.19913721 -0.2386989 0.51096785 -0.0066864467 0.036872346 -0.24180399 0.1360183 0.07654189 0.13535792 0.105968945 0.07208236 -0.013275088 0.20422177 0.3440977
weakness 0.15454832 0.055926654 -0.023237258 -0.011409719 -0.2365172 -0.036012176 -0.17657506 -0.062042005 -0.13669062 -0.0058494075 -0.0588287 -0.006649679 0.11009619 -0.074345104 -0.09635115 0.08584782 0.10220306 -0.1192793 0.009632715 0.14959158 -0.0702578 -0.14197902 0.058017466 0.011734501 0.008798834 -0.18226185 0.07054458 0.07772351 -0.07790687 -0.033462074 0.16715637 0.072185926 -0.021247277 -0.17727765 -0.018167898 -0.077099636 -0.25548172 0.020743696 -0.058758 0.16823427 0.046706002 0.11600922 -0.06492516 0.044128183 -0.09154187 0.011597936 -0.019195406 -0.075290695 -0.08789791 0.14027743 -0.15030652 0.05302771 0.029135443 -0.026114842 -0.20120586 0.19132467 -0.049666926 -0.06748641 0.012812723 0.058912832 -0.2070727 -0.047770597 0.016347576 -0.019944334 -0.08210288 0.13876177 0.059207942 0.15628468 -0.19872284 -0.08058411 0.043466583 0.0150984945 -0.10026369 -0.071711995 -0.017015086 0.01117463 -0.040200673 -0.09843051 0.014159947 0.023035133 -0.091479465 -0.12023454 -0.13285244 -0.08688133 0.13532223 -0.06819771 -0.13819146 -0.17643078 0.36777556 -0.00828849 0.02367595 -0.17382912 0.104507394 0.053230733 0.088197045 0.0804227 0.04339037 -0.0028608185 0.14511333 0.25295323
Myalgia 0.14424743 0.05467109 -0.023778044 -0.0048815776 -0.21634203 -0.03188641 -0.15519877 -0.053999294 -0.12479067 -0.00033887182 -0.04861255 -0.010689627 0.09737254 -0.059751708 -0.08348899 0.074132994 0.09081491 -0.11010946 0.0109484475 0.13462546 -0.06252476 -0.13224284 0.059742805 0.019947115 0.007954338 -0.16565011 0.05851297 0.068774074 -0.0756572 -0.02496235 0.15927 0.060455535 -0.017992286 -0.16311352 -0.016027492 -0.07123466 -0.2347669 0.025468487 -0.055608973 0.15465935 0.041930728 0.10048876 -0.051706795 0.04411399 -0.09290953 0.0016098686 -0.013342122 -0.0771438 -0.07104953 0.12641707 -0.13237 0.051396888 0.02037404 -0.02564084 -0.18020228 0.174184 -0.03847499 -0.06332739 0.013123121 0.048088692 -0.18753351 -0.043337636 0.017415794 -0.015323422 -0.071081825 0.13247275 0.05317765 0.14475109 -0.1825366 -0.07312619 0.03653067 0.010156365 -0.07900563 -0.07108329 -0.015512106 0.0027044115 -0.035810947 -0.0954132 0.01692715 0.023029244 -0.09253191 -0.10443915 -0.117736794 -0.07589052 0.13049193 -0.060899165 -0.12566164 -0.16544956 0.33694106 -0.0148357665 0.018926896 -0.16127683 0.09730748 0.058705386 0.08571792 0.06907902 0.04133908 -0.00043447645 0.13982353 0.22691551
68962001 0.12431013 0.037783906 -0.01333762 -0.00781751 -0.17760292 -0.03309565 -0.13468656 -0.050969753 -0.098417945 -0.0001392022 -0.0406979 0.0012397288 0.0912524 -0.053091913 -0.068377204 0.06260131 0.06952527 -0.093771964 0.011276137 0.118505426 -0.05448805 -0.10587366 0.041904323 0.015464541 -0.001566294 -0.13983476 0.04671071 0.055467863 -0.06471375 -0.023895917 0.12722626 0.053637575 -0.016869584 -0.1264153 -0.012997415 -0.058611777 -0.19970338 0.0139026875 -0.040819928 0.118223906 0.03762765 0.08371521 -0.050780963 0.028361322 -0.07682296 0.00618756 -0.018399546 -0.064828634 -0.05630926 0.097554065 -0.11720179 0.048765097 0.013650329 -0.019872805 -0.14849769 0.14001855 -0.03402645 -0.051725727 0.0036981183 0.038210377 -0.14628907 -0.04084689 0.004730691 -0.0067217723 -0.061328977 0.10967365 0.04913409 0.11455171 -0.1505972 -0.05485595 0.031430703 0.005145179 -0.06660938 -0.054247838 -0.01246164 -0.000927259 -0.035151396 -0.07741545 0.017481156 0.015216732 -0.080322295 -0.09277445 -0.09625518 -0.06699385 0.10678552 -0.050257534 -0.11389158 -0.1380876 0.28227228 -0.006735001 0.01755247 -0.12553035 0.07955751 0.04871422 0.07411705 0.05679787 0.03379073 -0.0022393297 0.11440177 0.19063304
the 0.20705357 0.07078699 -0.026031341 -0.007957067 -0.30286837 -0.05400513 -0.22289988 -0.08251493 -0.1722067 -0.003177022 -0.06895657 -0.005692835 0.1442564 -0.095278084 -0.123422004 0.111347996 0.13553475 -0.15245965 0.014980188 0.19416223 -0.09073437 -0.1804226 0.07695393 0.023093404 0.010614587 -0.23432297 0.08297006 0.09991218 -0.10308735 -0.03621238 0.22530541 0.09350457 -0.027879613 -0.22882369 -0.023356954 -0.10618996 -0.33963636 0.034073174 -0.0709783 0.21837373 0.0637117 0.14396253 -0.08258133 0.05605169 -0.12623273 0.009217269 -0.025608607 -0.0966347 -0.104830414 0.17514603 -0.19452931 0.08199803 0.033857644 -0.042179827 -0.26008183 0.2557466 -0.0626296 -0.09245134 0.011364364 0.077986926 -0.26632833 -0.061834753 0.012013214 -0.018782897 -0.10003306 0.18365414 0.080813885 0.20264085 -0.2641027 -0.10007357 0.059317425 0.01872427 -0.12143933 -0.09122311 -0.021066636 0.011641035 -0.047614392 -0.13139026 0.024458645 0.032911472 -0.13072659 -0.1542425 -0.17389901 -0.12083132 0.17788042 -0.085016176 -0.19070947 -0.22803009 0.48070335 -0.01280326 0.029427804 -0.22170867 0.1302026 0.079516344 0.117065504 0.10250133 0.067407295 -0.012687636 0.19412811 0.31931454
back 0.16133015 0.059477452 -0.02319832 -0.010323405 -0.23440321 -0.043804806 -0.176429 -0.0694057 -0.13703993 -0.010804621 -0.05049152 -0.0058630044 0.11215534 -0.06936343 -0.095247425 0.08684403 0.098745205 -0.11944722 0.016588934 0.15612385 -0.06584164 -0.14520007 0.059439726 0.018981308 0.005751986 -0.19164783 0.06797543 0.07973115 -0.08450609 -0.030130263 0.16951682 0.07459415 -0.01628727 -0.17572136 -0.025216546 -0.0869415 -0.26984066 0.027693946 -0.06294736 0.16960995 0.044650614 0.11270768 -0.06814469 0.04501199 -0.09631817 0.01431602 -0.024361152 -0.08079241 -0.08034793 0.14822242 -0.15748703 0.06600538 0.01748783 -0.03015166 -0.20066562 0.19309731 -0.047086027 -0.0716363 0.005786604 0.060832765 -0.21376628 -0.05294896 0.007799185 -0.014338952 -0.08130372 0.14346285 0.05940098 0.15525512 -0.20182669 -0.08145648 0.044008065 0.011671191 -0.1014869 -0.07787626 -0.017858064 0.0031264515 -0.04602182 -0.10053851 0.022979148 0.026847776 -0.100706905 -0.122385316 -0.13764864 -0.09151748 0.14538822 -0.061570965 -0.14398727 -0.18064587 0.38414305 -0.014686591 0.033732045 -0.1770603 0.10278954 0.061978087 0.0921749 0.09007092 0.048818693 -0.008962738 0.15776122 0.2515089
legs 0.12789528 0.048507903 -0.017803056 -0.007040094 -0.19412853 -0.030712327 -0.14350165 -0.05128437 -0.11204627 -0.008278467 -0.040611904 -0.0035241495 0.09552794 -0.057521258 -0.07347108 0.07292461 0.081119254 -0.09382791 0.009571112 0.12158546 -0.05127101 -0.11256734 0.052843396 0.0135099115 0.0035077746 -0.14582372 0.05095302 0.06767249 -0.06521827 -0.0218233 0.1439309 0.057048555 -0.019988783 -0.13897449 -0.017097147 -0.06419645 -0.20930351 0.017849885 -0.051665593 0.14128652 0.04273509 0.08876595 -0.054991618 0.032726765 -0.07542459 0.009309273 -0.01872346 -0.059545692 -0.07222971 0.11182897 -0.12850401 0.05323195 0.020589933 -0.025955414 -0.17012718 0.16361885 -0.036277823 -0.054993525 0.005088069 0.04833961 -0.17022476 -0.03717433 0.014038994 -0.016366262 -0.06876109 0.112704106 0.050640993 0.1264054 -0.16884716 -0.06965166 0.032304864 0.014223533 -0.08085862 -0.05989131 -0.013441084 0.009777898 -0.032242794 -0.08139126 0.020302521 0.026534822 -0.080037355 -0.09375684 -0.10503033 -0.07779472 0.11720543 -0.049542546 -0.11930356 -0.15002126 0.31134772 -0.009996786 0.025011595 -0.1465359 0.08644041 0.04552178 0.07731168 0.06522145 0.039898712 -0.0024598036 0.1260212 0.20280774
gas 0.2108822 0.078081116 -0.022991996 -0.016588286 -0.30652082 -0.06249657 -0.22406773 -0.080418475 -0.1750006 -0.007993816 -0.071633935 -0.002175091 0.14869003 -0.09439333 -0.13454854 0.108464174 0.13232777 -0.16382562 0.022119252 0.1898323 -0.082140416 -0.18417978 0.07929185 0.025254712 0.011508329 -0.23096907 0.08150007 0.09865493 -0.1014773 -0.04453544 0.22339879 0.09261917 -0.017221026 -0.21894301 -0.019131323 -0.11048547 -0.34598896 0.04142636 -0.06833962 0.22156358 0.061913446 0.15380459 -0.08950401 0.06261737 -0.12237828 0.012467549 -0.0266261 -0.10317346 -0.1013279 0.18134275 -0.1959337 0.07118309 0.03385805 -0.04440527 -0.25905704 0.24798447 -0.068302095 -0.097677365 0.015397459 0.08149432 -0.26664716 -0.07114413 0.016688522 -0.01639491 -0.10514896 0.19475864 0.075450405 0.2088707 -0.27225038 -0.11199001 0.04718531 0.017879188 -0.11606703 -0.10205924 -0.031673014 0.0078778 -0.04897041 -0.13725084 0.03338513 0.03749529 -0.13303682 -0.15735286 -0.1740273 -0.12296368 0.18567927 -0.085322045 -0.18040067 -0.23340791 0.48600215 -0.007337753 0.038365066 -0.22876503 0.13511361 0.07751699 0.12217963 0.10727296 0.0689129 -0.011853412 0.19418582 0.3228544
leg 0.13342588 0.055192433 -0.01672419 -0.0077481293 -0.20598663 -0.035334654 -0.15117802 -0.05995121 -0.11981113 0.0009304815 -0.04402687 -0.0061645433 0.09732106 -0.062404472 -0.076798 0.071350455 0.0908075 -0.1051572 0.009277742 0.128421 -0.055414192 -0.117359765 0.056504767 0.017941032 0.008821438 -0.16004662 0.05600694 0.06713131 -0.0704391 -0.02963893 0.1459035 0.061527215 -0.017225048 -0.15391305 -0.011009456 -0.06745653 -0.22820559 0.015292401 -0.048566435 0.14464957 0.044309 0.10283846 -0.054521494 0.038124513 -0.08468976 0.0052681374 -0.018374857 -0.06290485 -0.07696319 0.124817595 -0.1324263 0.050450478 0.017929446 -0.032579504 -0.17659919 0.1658221 -0.03716432 -0.056513008 0.002232495 0.05224825 -0.17970929 -0.044713594 0.015795197 -0.015847959 -0.071393795 0.122773595 0.057598982 0.1326483 -0.17223415 -0.068148404 0.032905526 0.010583512 -0.08522732 -0.064054616 -0.0158747 0.003137513 -0.03722339 -0.08316043 0.020341795 0.022084348 -0.08227639 -0.107981175 -0.1142829 -0.07922568 0.12425125 -0.052917846 -0.12603663 -0.16167441 0.32750037 -0.008039427 0.029861677 -0.15406549 0.091934964 0.055174127 0.08465808 0.06746837 0.04389202 -0.005368263 0.13197462 0.21925564
aches 0.1898934 0.06709344 -0.027147464 -0.008953538 -0.27681282 -0.044059638 -0.20172307 -0.07847147 -0.15415458 -0.010495984 -0.06507331 -0.0101367235 0.13811338 -0.0841162 -0.10659255 0.09799883 0.11391443 -0.14383726 0.014868158 0.17669383 -0.07781109 -0.167348 0.07267476 0.023302317 0.0020495707 -0.21331406 0.075912066 0.08433084 -0.09714087 -0.029197952 0.1949233 0.08961997 -0.026187861 -0.20609632 -0.0268968 -0.09475829 -0.3005907 0.032712016 -0.06632273 0.18610124 0.060613576 0.1290875 -0.07102395 0.05093341 -0.11518423 0.004522817 -0.028158324 -0.09317917 -0.09670094 0.16227125 -0.17519529 0.06931832 0.023369702 -0.038499236 -0.23619932 0.21900897 -0.058038283 -0.08108012 0.01272545 0.07120965 -0.232378 -0.054020785 0.016910411 -0.022777932 -0.09065536 0.17286904 0.06629765 0.18157189 -0.23929045 -0.092700325 0.05001007 0.019501898 -0.106255025 -0.08335488 -0.019023512 0.004463606 -0.051393688 -0.12037369 0.026788486 0.034019187 -0.11742726 -0.14105085 -0.15179265 -0.11010689 0.16216655 -0.07533814 -0.17327121 -0.21118295 0.42983028 -0.014721232 0.031755466 -0.20494017 0.119134344 0.06741123 0.111343816 0.09737874 0.06277885 -0.009084448 0.17374526 0.29365596
muscles 0.1587458 0.06109611 -0.021855623 -0.00892333 -0.24035817 -0.043408602 -0.17673764 -0.06324333 -0.13465637 -0.0065789865 -0.05631412 -0.007064723 0.121489614 -0.07347772 -0.09930729 0.0923901 0.103338115 -0.11628298 0.01250012 0.15782005 -0.072144136 -0.14640157 0.06341943 0.019136509 0.00740764 -0.19037156 0.062166285 0.08056896 -0.08778061 -0.03658318 0.16973704 0.07837543 -0.02338034 -0.18273339 -0.025167303 -0.08736771 -0.26860213 0.027139308 -0.06151784 0.17343411 0.050790425 0.11369828 -0.068942234 0.05040906 -0.097795896 0.0124063175 -0.021311438 -0.084391735 -0.08117863 0.14066665 -0.15290587 0.06577761 0.021977037 -0.030293092 -0.20292437 0.20297825 -0.04502899 -0.06832099 0.010882071 0.056644395 -0.20569156 -0.057055123 0.011635358 -0.01560982 -0.085959695 0.14804399 0.06343099 0.15729335 -0.20383939 -0.08412167 0.047727853 0.009718613 -0.09174364 -0.073709 -0.016565429 0.0044882935 -0.04525034 -0.09707241 0.014502184 0.028348707 -0.103663675 -0.12685964 -0.1367512 -0.09556096 0.14717549 -0.06947341 -0.14391293 -0.18781976 0.3825855 -0.009808522 0.02958439 -0.17872295 0.103361994 0.06467994 0.097353525 0.08590418 0.05010268 -0.009131704 0.1523676 0.2547412
Cramp 0.18322282 0.064638816 -0.025810406 -0.00567987 -0.2742316 -0.051796712 -0.20973714 -0.06897668 -0.1571954 -0.010967511 -0.06746911 -0.0075676846 0.13229059 -0.08490752 -0.10792199 0.10230789 0.1235063 -0.13446091 0.010140961 0.1819161 -0.071040384 -0.16436003 0.06587611 0.020313961 0.010972015 -0.21237421 0.06791949 0.09614978 -0.090526246 -0.04190735 0.19426055 0.085539 -0.022824576 -0.19991183 -0.02376968 -0.088450454 -0.30244088 0.024830453 -0.07254961 0.1926809 0.049445778 0.13401757 -0.0792779 0.052705508 -0.11447381 0.017027661 -0.023214526 -0.08728183 -0.10016955 0.15780364 -0.17682153 0.07141219 0.020614741 -0.032826625 -0.23586309 0.2242402 -0.048391026 -0.07421754 0.008474348 0.06590984 -0.24085915 -0.06467908 0.020835362 -0.019234417 -0.09926689 0.16495419 0.07225278 0.18334241 -0.23465967 -0.10121713 0.045826543 0.016589241 -0.10843461 -0.082526684 -0.022737687 0.008628358 -0.042000838 -0.11197028 0.021028701 0.026206382 -0.11730845 -0.14397162 -0.15572202 -0.11174453 0.16691223 -0.06860154 -0.16873352 -0.20773737 0.44005376 -0.019990206 0.031849783 -0.20059921 0.120321356 0.06917829 0.10576713 0.09123872 0.05258996 -0.010067146 0.17470258 0.293823
cramps 0.15619229 0.051441956 -0.021753015 -0.0050965673 -0.22577657 -0.039899375 -0.17134869 -0.0620852 -0.1265989 -0.0074397633 -0.049944215 -0.008236488 0.11111162 -0.06981118 -0.08808712 0.08773255 0.10226225 -0.11676604 0.0084607145 0.14845365 -0.060719322 -0.13222128 0.054122355 0.019571865 0.0037486295 -0.17871287 0.06371724 0.07231693 -0.07890126 -0.028704278 0.16520348 0.066838406 -0.014516592 -0.1668442 -0.014630306 -0.08127902 -0.25397512 0.020071337 -0.059444938 0.16247287 0.0411336 0.108446285 -0.058541417 0.044602655 -0.09343305 0.008699843 -0.015385751 -0.076488934 -0.08705516 0.13438883 -0.1506156 0.060169708 0.026230598 -0.03290812 -0.19679168 0.18458152 -0.03780846 -0.070625864 0.0029704117 0.059778392 -0.19852039 -0.04664306 0.012835807 -0.012512285 -0.08075913 0.13728748 0.053350586 0.14644828 -0.19274688 -0.073378526 0.03754195 0.010685471 -0.08819497 -0.06623064 -0.020784749 0.00623272 -0.040670272 -0.096599735 0.020983612 0.02564824 -0.10065999 -0.114073455 -0.12636699 -0.09279413 0.13213272 -0.060674913 -0.13818243 -0.17762882 0.35580936 -0.008400468 0.030535482 -0.16925773 0.09470178 0.051598802 0.08662677 0.08314873 0.046089686 -0.010462043 0.14516024 0.23989788
calf 0.16630048 0.065870345 -0.025283262 -0.011824769 -0.24496216 -0.043692324 -0.19116545 -0.06621608 -0.14619157 -0.0013595817 -0.057697218 -0.0056906985 0.11914021 -0.08361732 -0.10175318 0.09843106 0.10771239 -0.12286173 0.011872356 0.16268042 -0.06740226 -0.156013 0.065413766 0.021930171 0.0069828914 -0.1954096 0.06585915 0.08712375 -0.0808759 -0.038353223 0.18456697 0.0719583 -0.021126589 -0.18916565 -0.019254861 -0.084509216 -0.27809158 0.021753613 -0.06375958 0.1801264 0.046651244 0.12358106 -0.07095627 0.05085684 -0.1049532 0.015248755 -0.017021291 -0.08384776 -0.09537497 0.14354207 -0.16434407 0.06977247 0.022574147 -0.03704795 -0.21453807 0.21334182 -0.05328119 -0.072053194 0.007975445 0.061783224 -0.21944635 -0.05441364 0.017106973 -0.01439866 -0.08355332 0.15096158 0.069850795 0.170334 -0.21567057 -0.088381045 0.040702693 0.014067439 -0.09519729 -0.07713361 -0.020644655 0.009127797 -0.036728714 -0.10340917 0.024838967 0.029071234 -0.10305876 -0.12637489 -0.13584335 -0.10149087 0.14614813 -0.06662207 -0.15763317 -0.19098617 0.39136392 -0.0137972785 0.02489955 -0.18568899 0.112965934 0.07008078 0.09771656 0.08482198 0.057733953 -0.01193041 0.15939489 0.269401
Excessive 0.19343813 0.06953433 -0.020537667 -0.012727323 -0.28217283 -0.05960599 -0.21303576 -0.073916614 -0.16470753 -0.0022454816 -0.0603605 0.00228434 0.13545755 -0.08148749 -0.12475628 0.105705194 0.12907177 -0.15527272 0.016658911 0.17628604 -0.07413605 -0.17522267 0.0784271 0.020345725 0.014870255 -0.22089805 0.08234301 0.10000696 -0.095981576 -0.03849754 0.21591823 0.091556646 -0.015203286 -0.20570207 -0.015433343 -0.09921836 -0.3231755 0.041586205 -0.07166572 0.20346795 0.06425183 0.1413487 -0.0832726 0.06076765 -0.118100256 0.008439825 -0.030723933 -0.090160154 -0.10454055 0.16156036 -0.18303277 0.074272506 0.029067364 -0.0339798 -0.24030785 0.23211153 -0.06784724 -0.09562425 0.007807511 0.07553262 -0.24256839 -0.06879127 0.02009331 -0.010613006 -0.09873841 0.17873389 0.07427685 0.19184344 -0.2528098 -0.09539129 0.046900578 0.01204732 -0.11579094 -0.08923385 -0.025723828 0.012197345 -0.042344406 -0.121394165 0.031709492 0.037210505 -0.119393244 -0.15267293 -0.1538955 -0.11667322 0.16614492 -0.07493254 -0.16950485 -0.21623352 0.46168655 -0.0041814274 0.030827902 -0.21444651 0.12791657 0.06644822 0.11876077 0.09282798 0.06159753 -0.017125065 0.1778672 0.30237317
gastrointestinal 0.18479148 0.06866299 -0.024540585 -0.01561317 -0.27112645 -0.052986827 -0.20844719 -0.07081585 -0.15391512 -0.009763062 -0.068810485 -0.0005724938 0.12938578 -0.08070267 -0.121780224 0.104824536 0.1227528 -0.14550889 0.016794028 0.17968541 -0.08003585 -0.16579199 0.0673176 0.0217665 0.010722759 -0.21597654 0.07701558 0.09513271 -0.09408489 -0.038701817 0.20660582 0.082909554 -0.025861064 -0.20467938 -0.018839044 -0.09284148 -0.31428468 0.034896087 -0.061571695 0.20195638 0.06362354 0.14248373 -0.08243698 0.04830479 -0.12134765 0.003855435 -0.029111354 -0.09193308 -0.095053926 0.15890001 -0.17485438 0.07093265 0.034151793 -0.04296961 -0.24177352 0.23076674 -0.063751474 -0.09245543 0.010298742 0.06943071 -0.24147095 -0.058762662 0.010359258 -0.008702202 -0.09573762 0.17582573 0.07677304 0.19062865 -0.24125649 -0.09971152 0.049375895 0.00882466 -0.110811755 -0.09745606 -0.029225573 0.00696373 -0.043308347 -0.12244003 0.028170781 0.038719557 -0.12264104 -0.14445512 -0.15880767 -0.11317689 0.16424984 -0.07511382 -0.16722065 -0.2119536 0.4511447 -0.003722954 0.0277431 -0.21500584 0.11832095 0.07377648 0.119262226 0.08791506 0.058338944 -0.00836474 0.18324444 0.30338505
162076009 0.14113256 0.04841725 -0.01269631 -0.017355785 -0.21463938 -0.042698562 -0.16142689 -0.05632765 -0.12169256 -0.0039561107 -0.05333634 -0.004453982 0.097575866 -0.062870026 -0.09915101 0.08176941 0.09749671 -0.11753262 0.013902803 0.1377758 -0.05448969 -0.13371179 0.05899056 0.010221164 0.0061891247 -0.17160773 0.0553353 0.07142813 -0.06986994 -0.025870735 0.16434355 0.06841844 -0.012420009 -0.15387705 -0.011704287 -0.07141225 -0.24840048 0.027511125 -0.045799084 0.15465622 0.051309228 0.110995084 -0.06534178 0.03778293 -0.093299456 0.0032691879 -0.018173257 -0.072362855 -0.069862485 0.12743135 -0.13447069 0.048834693 0.024879592 -0.035923082 -0.17979798 0.1739673 -0.04547247 -0.07309681 0.014114475 0.04948987 -0.183717 -0.042023856 0.013805773 -0.00789697 -0.07541408 0.13992558 0.060340866 0.14480548 -0.19338585 -0.07699808 0.038674932 0.01296074 -0.081162356 -0.075233094 -0.017687764 0.010026278 -0.036525905 -0.093743004 0.020558635 0.02906652 -0.088645965 -0.108638614 -0.11748406 -0.08146318 0.12513939 -0.053649936 -0.12777391 -0.16252436 0.34865752 -0.009731771 0.027355751 -0.16716754 0.09466079 0.050119374 0.089814335 0.07194359 0.045311972 -0.009378531 0.14392172 0.23601729
stomach 0.20597768 0.07218884 -0.02764731 -0.0134102665 -0.3112572 -0.058751136 -0.23526432 -0.08110448 -0.17897181 -0.0026139745 -0.06779714 -0.0055565145 0.14811905 -0.09504318 -0.118752025 0.11850026 0.13200548 -0.15443929 0.02330538 0.19597995 -0.090625376 -0.18410295 0.08367289 0.020402139 0.005907912 -0.24119973 0.08688664 0.106528476 -0.105233595 -0.036116555 0.22457217 0.097874135 -0.030225443 -0.2293713 -0.02818215 -0.111655384 -0.34474576 0.028309429 -0.07199764 0.21988775 0.06057357 0.1513627 -0.08907361 0.06505788 -0.13103011 0.004959536 -0.022006039 -0.10138359 -0.110139206 0.18614866 -0.20569836 0.08148351 0.033327904 -0.040737245 -0.26850465 0.25562468 -0.05649566 -0.09675209 0.0037941376 0.07215088 -0.26967466 -0.07066355 0.019173821 -0.022304654 -0.113905296 0.19586097 0.08423569 0.20515274 -0.26409873 -0.106842734 0.059030727 0.019295748 -0.11722644 -0.10336003 -0.030564586 0.005504127 -0.047880106 -0.1378857 0.026912956 0.03853133 -0.13434683 -0.16187459 -0.17179693 -0.11801355 0.18433803 -0.07920778 -0.18740731 -0.24095866 0.49147162 -0.012801062 0.030173728 -0.22999115 0.12836151 0.077229336 0.12849092 0.10859531 0.059272327 -0.009787615 0.19729197 0.33292323
needles 0.22238089 0.08043599 -0.023857774 -0.01705805 -0.32040632 -0.06172299 -0.24190517 -0.092528775 -0.17667691 -0.0044613704 -0.07598383 -0.0057584597 0.15030971 -0.09538687 -0.12484722 0.123488605 0.13949914 -0.17104521 0.021970993 0.20319602 -0.10031832 -0.19595349 0.080926985 0.015889078 0.00074315775 -0.25632995 0.082569145 0.09893413 -0.104821794 -0.03672934 0.24095823 0.10624355 -0.030629233 -0.2314841 -0.022385051 -0.10373683 -0.35862738 0.03806257 -0.07289308 0.22404252 0.06589139 0.15360789 -0.083415926 0.05443093 -0.13135837 0.0040206336 -0.029176734 -0.10703492 -0.10851459 0.18648243 -0.21109642 0.07428359 0.027032427 -0.040137157 -0.28093815 0.2678075 -0.059006646 -0.089598455 0.018008962 0.07220038 -0.2770517 -0.071473226 0.007943507 -0.016385254 -0.108612664 0.1936831 0.07827126 0.21939072 -0.2796956 -0.11744115 0.05646757 0.024429377 -0.12777671 -0.09647211 -0.02878429 0.013145377 -0.054773245 -0.13461185 0.032908354 0.042405326 -0.13891509 -0.16605866 -0.18303965 -0.123038456 0.19212182 -0.08137006 -0.20570686 -0.24624088 0.5101474 -0.017044144 0.03383096 -0.23860376 0.13026613 0.08059816 0.12230925 0.11454053 0.06286301 -0.014136867 0.20236813 0.33317527
walk 0.23648646 0.08440968 -0.0340207 -0.018207965 -0.34791702 -0.060934626 -0.26122126 -0.10210908 -0.20272729 -0.006023967 -0.08513729 -0.006201991 0.1677131 -0.11278444 -0.1434564 0.123697765 0.14651588 -0.17457272 0.025486672 0.22336006 -0.099542096 -0.21299103 0.09410487 0.024521293 0.0011284729 -0.26979768 0.101710364 0.12144377 -0.12420192 -0.0471204 0.2542614 0.10957313 -0.034484744 -0.25470504 -0.029136144 -0.11703884 -0.38437718 0.040078137 -0.08124312 0.24252214 0.07336367 0.16901216 -0.09451206 0.06487722 -0.13773727 0.008923716 -0.024572754 -0.11666643 -0.12704675 0.21121727 -0.22622147 0.085349455 0.042784877 -0.04263179 -0.30307928 0.28210655 -0.07465435 -0.09940638 0.016066557 0.085132055 -0.30190977 -0.080646835 0.017636176 -0.019627279 -0.12330433 0.21752271 0.09367523 0.23645675 -0.3081551 -0.119059846 0.06339316 0.017890025 -0.13531345 -0.1097456 -0.029558271 0.013962412 -0.06168726 -0.1490321 0.0306174 0.037740324 -0.14189027 -0.17268503 -0.19618817 -0.1288363 0.21574733 -0.09624879 -0.20918624 -0.27107555 0.55366963 -0.02066687 0.03601298 -0.25970957 0.15313782 0.08871456 0.13687538 0.115148425 0.075339265 -0.010840192 0.21663643 0.37527052
cramp 0.1352131 0.043718275 -0.018439025 -0.0005499325 -0.19211209 -0.03611981 -0.14645003 -0.056688823 -0.114743546 -0.0035401809 -0.040645055 -0.0013089128 0.09218487 -0.056198955 -0.08620333 0.07542507 0.08622635 -0.1004596 0.011143992 0.13544527 -0.057742108 -0.12212624 0.049800757 0.020970732 0.0106663555 -0.15857053 0.050601326 0.05974372 -0.07411735 -0.029483331 0.14812277 0.056717392 -0.015264372 -0.15070933 -0.01985641 -0.06491016 -0.22543716 0.016771337 -0.053557266 0.13984162 0.04278394 0.09554111 -0.052035335 0.034495328 -0.08101512 0.007013595 -0.022010246 -0.069740355 -0.07321505 0.12139513 -0.12740077 0.05775189 0.027242837 -0.025014115 -0.16969614 0.16089965 -0.03398532 -0.053476132 0.008663227 0.050179653 -0.17443755 -0.04108062 0.014539854 -0.01166153 -0.07078279 0.119138196 0.05619499 0.13594997 -0.17426926 -0.06394342 0.035917103 0.015479598 -0.08129411 -0.06693993 -0.010788012 0.0032571682 -0.027170125 -0.08483699 0.012036456 0.0291748 -0.088170886 -0.10362506 -0.113554746 -0.07729201 0.12255095 -0.05214832 -0.11681625 -0.15158634 0.30969432 -0.013025222 0.023675492 -0.14470112 0.08300154 0.050755817 0.08234574 0.069927394 0.040632486 -0.005432705 0.12834218 0.21593897
fatigue 0.14715447 0.04700256 -0.023117198 -0.0032200105 -0.2036884 -0.0411258 -0.15664695 -0.051676046 -0.11575075 -0.004807456 -0.045599766 -0.00619224 0.10510242 -0.066194355 -0.09029979 0.07644259 0.08874852 -0.10343302 0.015284029 0.13031639 -0.061221164 -0.13178697 0.05518586 0.014835837 0.00019361841 -0.16666363 0.060129553 0.07167567 -0.06807203 -0.029189706 0.14675687 0.06789191 -0.018089784 -0.15409681 -0.015826927 -0.06854031 -0.23632886 0.020269265 -0.053509887 0.15132496 0.04051094 0.104422934 -0.05361721 0.03752184 -0.0880499 0.00412936 -0.017129606 -0.06727755 -0.07332576 0.12519269 -0.13401029 0.056428656 0.025100501 -0.03260757 -0.1807635 0.17129643 -0.045737196 -0.061641067 0.0072772303 0.05338453 -0.18195488 -0.0420452 0.006962821 -0.017171854 -0.07179198 0.13205792 0.056043558 0.14024258 -0.18120693 -0.06998482 0.038142323 0.014794869 -0.08288043 -0.068034455 -0.023253003 0.0076793716 -0.032740936 -0.08788807 0.014942564 0.028148167 -0.08255073 -0.109328866 -0.12229001 -0.08286057 0.123446114 -0.051293653 -0.12886903 -0.15714283 0.33616215 -0.012953278 0.019000614 -0.15613048 0.09261793 0.054769047 0.083564125 0.07573498 0.04539737 -0.010929713 0.12986962 0.22152379
memory 0.23865914 0.081265405 -0.033179387 -0.012293927 -0.3563709 -0.055597946 -0.26383573 -0.0917218 -0.20268446 -0.00014691519 -0.07675615 -0.013264405 0.17909873 -0.10336482 -0.14880891 0.13355301 0.15628976 -0.17978597 0.021658665 0.22654922 -0.10466042 -0.21028073 0.0935402 0.028021125 0.0043660114 -0.2809021 0.093259044 0.11279064 -0.114642754 -0.040286485 0.25838456 0.103074595 -0.030209908 -0.25753346 -0.032144394 -0.117084585 -0.39333856 0.036472216 -0.087482564 0.24792786 0.0661218 0.17144877 -0.09244881 0.06992697 -0.14346918 0.01017158 -0.037231393 -0.11522166 -0.12417981 0.21278737 -0.23027195 0.08627383 0.03648079 -0.053279713 -0.2964337 0.2966109 -0.075253256 -0.10521311 0.013664129 0.08997143 -0.31092656 -0.0759158 0.023244172 -0.027627863 -0.12786873 0.22011276 0.09756428 0.22915977 -0.3110636 -0.12562403 0.059245646 0.023509435 -0.14468895 -0.11660435 -0.032647774 0.009053852 -0.061914895 -0.15056731 0.03374595 0.04217865 -0.14615755 -0.17972621 -0.19605727 -0.13795373 0.20852247 -0.09833596 -0.21992023 -0.26503906 0.5540747 -0.024372155 0.03534237 -0.2629206 0.14624812 0.090813644 0.13392466 0.12319998 0.07317516 -0.012075791 0.22418016 0.3781641
Pins 0.19149981 0.06944563 -0.022386914 -0.015505893 -0.2734916 -0.05376607 -0.2070487 -0.07515839 -0.15092151 -0.0068106945 -0.06257795 -0.0036181903 0.14092332 -0.07923371 -0.11427169 0.102533266 0.11933549 -0.15117878 0.019199017 0.17355804 -0.08010143 -0.16965447 0.07606245 0.021517133 0.004370031 -0.22168304 0.07431267 0.08543196 -0.091579884 -0.026862852 0.21363991 0.09410385 -0.022521242 -0.20220739 -0.016026393 -0.09036774 -0.3132674 0.024732325 -0.06769043 0.20236166 0.063071996 0.13294439 -0.07068339 0.044195067 -0.110090576 0.00086313096 -0.030095289 -0.098143876 -0.1032636 0.16329531 -0.1866471 0.06970832 0.023429802 -0.03220246 -0.24542329 0.23709913 -0.054822735 -0.08587172 0.015758604 0.066344745 -0.24502738 -0.0611059 0.007837096 -0.012765486 -0.08888394 0.17669772 0.06691148 0.18337058 -0.24481349 -0.101066746 0.04903062 0.015563179 -0.11510556 -0.083491005 -0.01657783 0.002575277 -0.05349173 -0.124231055 0.030348338 0.04015847 -0.12102573 -0.13855986 -0.15532014 -0.111892685 0.17076507 -0.07543218 -0.1780736 -0.21894157 0.44548187 -0.013242251 0.036662593 -0.20907085 0.11816463 0.06448999 0.11537747 0.09603346 0.053171683 -0.016115848 0.17151621 0.29606068
feet 0.1567035 0.059654307 -0.026468033 -0.012104412 -0.233213 -0.042899996 -0.16937687 -0.06694569 -0.12890951 -0.008244599 -0.050430834 -0.0018360249 0.11212041 -0.07578595 -0.09078303 0.091277614 0.09584915 -0.11938398 0.009987603 0.15453911 -0.06933878 -0.14365791 0.058452502 0.01455668 0.007044544 -0.17813103 0.057488307 0.072613955 -0.074839614 -0.025821567 0.17105143 0.07043028 -0.016190624 -0.1693369 -0.01760306 -0.08336366 -0.26047316 0.025053365 -0.056701977 0.16444062 0.045792114 0.11123412 -0.06890006 0.040723182 -0.09217379 0.013586847 -0.020102741 -0.07552474 -0.08335257 0.13689007 -0.14711381 0.054679573 0.01863655 -0.037650876 -0.19808276 0.19586352 -0.04429099 -0.06630764 0.009604074 0.05705043 -0.20210584 -0.0548578 0.006541242 -0.01072873 -0.080191046 0.13930736 0.061708666 0.15989767 -0.20061547 -0.07986154 0.041635484 0.011466151 -0.08892744 -0.070355065 -0.019618977 0.010863505 -0.039858997 -0.100916766 0.02319662 0.031647168 -0.100207254 -0.11634062 -0.12600404 -0.091400534 0.13848399 -0.06511389 -0.14741595 -0.17640728 0.36601162 -0.009340614 0.026978338 -0.17860931 0.09707455 0.055974096 0.09690886 0.08219958 0.047100004 -0.0040990054 0.15131305 0.25091237
Unable 0.249214 0.09158273 -0.031325947 -0.019988764 -0.369523 -0.058396533 -0.27619058 -0.103697315 -0.21217357 -0.0048903353 -0.09141141 -0.010739174 0.18443897 -0.12121808 -0.15056485 0.13522357 0.15493038 -0.18054417 0.029090485 0.24165912 -0.10129155 -0.22940078 0.09280922 0.024072895 0.0030177638 -0.29321083 0.10468248 0.12540637 -0.13487017 -0.044528928 0.27016065 0.1130629 -0.036795363 -0.28100827 -0.030491997 -0.1329524 -0.4151436 0.040035315 -0.09801386 0.2604148 0.07898563 0.18777838 -0.0968133 0.066913255 -0.14658366 0.012148506 -0.02558666 -0.11833695 -0.13566437 0.21880232 -0.2418273 0.09503905 0.046488255 -0.048315287 -0.3154132 0.30534536 -0.07254949 -0.104925334 0.013202682 0.08147191 -0.3247849 -0.080292076 0.02255849 -0.028521074 -0.1327737 0.22490463 0.10316489 0.25111225 -0.32382798 -0.13170278 0.07324058 0.018834073 -0.15224047 -0.12207561 -0.034754533 0.0043583247 -0.06127819 -0.15218209 0.026978437 0.039712254 -0.16066611 -0.18422827 -0.21204828 -0.13715412 0.22997016 -0.10510038 -0.2275933 -0.28931215 0.58814895 -0.020593569 0.040272553 -0.28221595 0.16123627 0.09002117 0.14446469 0.12846334 0.075467184 -0.013171847 0.23667288 0.39389646
62507009 0.15157492 0.055752896 -0.015680943 -0.004140996 -0.22129202 -0.044166446 -0.16976808 -0.06357525 -0.123488925 -0.00013808417 -0.051185787 -0.0027434067 0.104104094 -0.07077757 -0.093712695 0.08831804 0.10262933 -0.11955642 0.017052818 0.1441794 -0.07133834 -0.1364311 0.0524187 0.014137728 0.0017617685 -0.17959748 0.06578504 0.072632946 -0.0723332 -0.020585712 0.16948654 0.06579297 -0.02252052 -0.16603519 -0.012781216 -0.07117072 -0.2532017 0.020923972 -0.05479589 0.1534204 0.043378547 0.1111425 -0.061559208 0.04179258 -0.08634332 0.01069933 -0.017448662 -0.074257314 -0.080673724 0.13507883 -0.14195465 0.05083953 0.020176237 -0.023413524 -0.19798821 0.18409555 -0.041815497 -0.062033165 0.014807064 0.049352333 -0.19131097 -0.04842499 0.005304992 -0.018165065 -0.07241031 0.13879457 0.06123819 0.15295997 -0.19742322 -0.076205105 0.044732153 0.016636245 -0.0868836 -0.06413068 -0.012394989 0.008401419 -0.031926397 -0.09121187 0.016041301 0.034238543 -0.1014288 -0.109431826 -0.11936736 -0.090466686 0.13670217 -0.06296304 -0.14208594 -0.16976401 0.34942365 -0.005186135 0.019910885 -0.17070085 0.09020368 0.054203384 0.087673716 0.07350254 0.046470083 -0.008248046 0.14529485 0.23807429
55300003 0.123462915 0.047781143 -0.018589368 -0.0039628632 -0.18082286 -0.029423261 -0.13735968 -0.055479642 -0.09884483 6.021508e-05 -0.040744577 -2.7763987e-05 0.09161294 -0.05695452 -0.073149934 0.06752849 0.08273685 -0.08849499 0.0067473366 0.11819101 -0.05106259 -0.110720515 0.043348975 0.018665772 0.001687505 -0.14414524 0.051377796 0.05503773 -0.059117615 -0.028397296 0.12861106 0.052079797 -0.015459937 -0.13604617 -0.021771286 -0.055003654 -0.20436276 0.015056231 -0.044154324 0.13088274 0.037720002 0.086353034 -0.052618142 0.029991742 -0.06693215 0.0006571785 -0.01488801 -0.0649674 -0.06924175 0.10860553 -0.10882515 0.050318036 0.013631109 -0.020491265 -0.14764513 0.1417074 -0.031486493 -0.057259418 0.009984458 0.04713047 -0.15711321 -0.037051488 0.007850589 -0.017199583 -0.06367465 0.110479645 0.045061834 0.11525998 -0.15505578 -0.05943587 0.03715293 0.015694804 -0.07269705 -0.060259458 -0.013027873 0.001208108 -0.030378792 -0.07075837 0.008328956 0.027019028 -0.07340005 -0.08852878 -0.095690526 -0.06965843 0.11195167 -0.047906477 -0.11065506 -0.13945334 0.28214625 -0.0035292679 0.021892132 -0.12660107 0.08029111 0.038636465 0.074470736 0.065670915 0.031899072 -0.005305205 0.1186894 0.19239151
Weakness 0.13372144 0.055201307 -0.019899547 -0.0115788495 -0.19895585 -0.035478633 -0.14972106 -0.056279805 -0.12253363 0.0030860284 -0.047354024 -0.0015133517 0.10010907 -0.058625627 -0.07853501 0.071883224 0.09387913 -0.10032028 0.017592644 0.13058661 -0.058777567 -0.11611613 0.05227636 0.0076809935 0.006279489 -0.16032988 0.05466912 0.0680349 -0.078239754 -0.03230457 0.14714329 0.065746635 -0.013378855 -0.14680524 -0.015694486 -0.07189953 -0.221613 0.02328408 -0.046082016 0.1475337 0.034804266 0.102544576 -0.050701313 0.04312292 -0.086723715 0.0123205185 -0.022517195 -0.06730392 -0.07261455 0.12528515 -0.13190363 0.049354874 0.01451651 -0.021209642 -0.17395473 0.17236294 -0.043235015 -0.06162636 0.011191642 0.048092294 -0.17435822 -0.042303104 0.012946372 -0.0165165 -0.070402935 0.12596461 0.045976385 0.13396594 -0.17353825 -0.0719389 0.0405336 0.009201016 -0.08709619 -0.06815427 -0.017871886 0.004255217 -0.040873498 -0.08237999 0.01200627 0.021958757 -0.08123015 -0.100497276 -0.11570373 -0.07620107 0.12237358 -0.049428698 -0.124477305 -0.15821971 0.3249025 -0.0058680205 0.025519712 -0.15136288 0.09171508 0.049426053 0.07301927 0.074469425 0.044572297 -0.00808089 0.12858799 0.21987231
- 0.27200073 0.09939778 -0.039566133 -0.023617048 -0.39971226 -0.06484171 -0.29136965 -0.10915102 -0.22568826 -0.0070279273 -0.09023763 -0.0059645814 0.19999 -0.11678335 -0.16212437 0.14744459 0.1687915 -0.20209453 0.026014712 0.25533256 -0.10706352 -0.24181828 0.10570209 0.026659474 0.011186182 -0.3119329 0.1115095 0.124476984 -0.13730897 -0.048415836 0.28364098 0.12896146 -0.040140964 -0.2958856 -0.03449508 -0.14010939 -0.4348156 0.04219506 -0.09746869 0.28129563 0.081718795 0.192842 -0.10141205 0.082958646 -0.15681939 0.00819015 -0.040168155 -0.13839449 -0.13539818 0.24275558 -0.26280838 0.10500227 0.034806065 -0.052784286 -0.3427674 0.33112732 -0.085110314 -0.11605579 0.018836712 0.10393662 -0.3408426 -0.083014965 0.027226258 -0.030650454 -0.13981384 0.23914145 0.113004796 0.26071548 -0.33494407 -0.13092798 0.06623784 0.029724047 -0.16403326 -0.11674123 -0.04088048 0.00902251 -0.07119623 -0.1707353 0.0302947 0.05330316 -0.16426595 -0.20864147 -0.21735075 -0.14541519 0.23896313 -0.103737205 -0.2440299 -0.29708308 0.62901545 -0.01900741 0.046594243 -0.30197054 0.16732122 0.096068494 0.15809157 0.12859611 0.08442716 -0.0058364244 0.2537747 0.4157619
Walking 0.18670966 0.06879972 -0.023483612 -0.018115677 -0.2683137 -0.04744901 -0.20794766 -0.07215328 -0.15306446 -0.0023123072 -0.06762972 -0.0073624654 0.13434777 -0.08730025 -0.11553359 0.102416106 0.115995124 -0.1272412 0.012258533 0.18327837 -0.07286477 -0.16305755 0.075890824 0.0114528425 -0.0025708037 -0.21950291 0.0757152 0.09092359 -0.09187261 -0.033375774 0.19340709 0.08298071 -0.030839728 -0.19832833 -0.027967904 -0.087222174 -0.3023924 0.035044063 -0.07112426 0.18662442 0.05297543 0.13304171 -0.07743476 0.059150267 -0.10675216 0.003665865 -0.022247186 -0.08626401 -0.091764346 0.16834205 -0.17483656 0.07431189 0.0358742 -0.030268904 -0.23615104 0.22428137 -0.0600932 -0.082459316 0.011984131 0.058826867 -0.23622838 -0.066654176 0.010444972 -0.018600287 -0.102724016 0.16443546 0.06903678 0.18031089 -0.24228619 -0.08726837 0.046142064 0.013917343 -0.10428267 -0.09132516 -0.019507436 0.011629184 -0.044628344 -0.115980215 0.015781472 0.029792972 -0.11336809 -0.13300256 -0.15021041 -0.1040583 0.17209691 -0.07779551 -0.16554026 -0.20287827 0.42668012 -0.018784273 0.022669008 -0.20904917 0.11071924 0.07246637 0.100380294 0.08622463 0.05764097 -0.01122869 0.17017321 0.29332906
disability 0.22212894 0.08440885 -0.03223519 -0.014442725 -0.33049986 -0.06122034 -0.23643138 -0.09500601 -0.19110069 -0.00410427 -0.0723723 -0.0077011543 0.15551445 -0.09628667 -0.13642663 0.115553595 0.13516271 -0.15754604 0.01988955 0.21710904 -0.09486047 -0.20208028 0.08621955 0.020819414 -0.0020666579 -0.2619565 0.08393341 0.11143224 -0.109422185 -0.037932113 0.2347584 0.10287923 -0.036627367 -0.24746616 -0.02561965 -0.10923614 -0.36251166 0.041655328 -0.07832843 0.22920257 0.06494389 0.15912426 -0.09151986 0.065258265 -0.1283929 0.007585466 -0.029269315 -0.10960954 -0.11459221 0.19656429 -0.20845827 0.080121666 0.041637674 -0.03738482 -0.2789502 0.26693323 -0.06898087 -0.09416938 0.00843005 0.07804654 -0.27459425 -0.07917075 0.019292627 -0.021145571 -0.11966636 0.19808502 0.08415021 0.2159115 -0.28243935 -0.11394364 0.062065985 0.012540377 -0.13557476 -0.103617184 -0.032023404 0.009042686 -0.053081784 -0.1422403 0.023656929 0.0394882 -0.12965925 -0.15634272 -0.17941321 -0.12426213 0.19734697 -0.09512876 -0.19456941 -0.24531505 0.50664586 -0.013508266 0.03132699 -0.24809217 0.1373078 0.08374153 0.12279297 0.11115949 0.06117039 -0.0066041634 0.20690627 0.34042045
Arthralgia 0.119082786 0.044796806 -0.021715997 -0.0070420783 -0.18450268 -0.026316341 -0.1345086 -0.049321182 -0.097933516 0.0008733903 -0.035495687 -0.00035439656 0.091911584 -0.057527874 -0.07360962 0.06118614 0.075059995 -0.09092113 0.0076833665 0.12230989 -0.0569676 -0.11336333 0.042083252 0.013915433 0.0056261886 -0.14057095 0.047417197 0.0580924 -0.05815412 -0.019418227 0.12902316 0.06021342 -0.011039632 -0.139951 -0.017835736 -0.061055526 -0.20007055 0.02124856 -0.03725649 0.13413104 0.036835983 0.08324415 -0.044728108 0.03756507 -0.07003323 0.0070742583 -0.017323865 -0.06251108 -0.06852204 0.102688745 -0.12042958 0.047072086 0.016790375 -0.02827356 -0.15199624 0.1487324 -0.032377318 -0.059996925 0.0015855487 0.04938194 -0.15460822 -0.038730077 0.015977664 -0.013067875 -0.05908674 0.10854426 0.04630744 0.11969121 -0.15134825 -0.06481808 0.03204352 0.009080894 -0.07287461 -0.053192176 -0.020337064 0.004623863 -0.030463934 -0.08432514 0.008372054 0.022788271 -0.07129025 -0.09923833 -0.09503558 -0.06864668 0.11486822 -0.05383376 -0.112148285 -0.14027026 0.29016942 -0.0103594605 0.017581996 -0.13163894 0.07358943 0.041516546 0.06663229 0.06491231 0.03612151 -0.00078834995 0.121309295 0.19611622
sleep 0.24772765 0.08953221 -0.037879758 -0.014612387 -0.36302012 -0.060210932 -0.2713974 -0.0986391 -0.19993216 -0.011681494 -0.08848988 -0.008058337 0.17204417 -0.11468322 -0.14414842 0.13734818 0.15060721 -0.17709643 0.01799244 0.23644911 -0.108371615 -0.21659462 0.09168071 0.026551245 0.012348213 -0.286476 0.09914028 0.113711305 -0.12831041 -0.04762981 0.2676175 0.1163905 -0.029579667 -0.26388407 -0.029709596 -0.12840648 -0.39511174 0.03902481 -0.08731002 0.25003853 0.067753315 0.17082554 -0.09598406 0.065537594 -0.15094504 0.017442888 -0.029212577 -0.11753172 -0.12312389 0.20928736 -0.22881435 0.09593948 0.040768847 -0.042528942 -0.30176443 0.29490343 -0.075237855 -0.1029234 0.011536829 0.08982338 -0.30952674 -0.074066244 0.01637022 -0.018390303 -0.12712549 0.21788155 0.094845206 0.23651367 -0.30607522 -0.12692328 0.06930252 0.024567688 -0.14559929 -0.11067692 -0.025501499 0.012582773 -0.06270607 -0.15387346 0.026677351 0.040500525 -0.14711918 -0.18299238 -0.20077118 -0.132911 0.21236923 -0.100165285 -0.2213152 -0.27020574 0.5714789 -0.013409334 0.04299756 -0.27093574 0.1511544 0.08631891 0.14373773 0.12642317 0.07050319 -0.01716247 0.22496682 0.37681913
228158008 0.16548795 0.05761049 -0.026548976 -0.016622597 -0.24363063 -0.044120733 -0.17854218 -0.06904807 -0.13622077 0.00090382574 -0.057584997 -0.00761108 0.11457773 -0.070465185 -0.09538233 0.08857677 0.09714803 -0.11498467 0.017446622 0.16075228 -0.07375908 -0.15048409 0.06012374 0.009408988 2.405608e-05 -0.18821184 0.06453463 0.076237194 -0.07717999 -0.031788886 0.1793091 0.07900924 -0.022954818 -0.17776531 -0.02529224 -0.08220755 -0.2654152 0.02360797 -0.060540862 0.17291395 0.048758816 0.11016687 -0.064690925 0.05175888 -0.09866674 0.009621679 -0.020586262 -0.08012024 -0.08097963 0.141899 -0.15677501 0.06171663 0.03258731 -0.030479513 -0.20862043 0.201678 -0.05517212 -0.07444438 0.012466055 0.05389551 -0.20250034 -0.05977088 0.0077052866 -0.012179419 -0.08690964 0.14816067 0.060919784 0.15962547 -0.21038564 -0.08205307 0.037649713 0.012093873 -0.10071826 -0.07976033 -0.019602839 0.009391354 -0.039639752 -0.100511 0.011811551 0.02840082 -0.094132155 -0.120263375 -0.13814501 -0.09212731 0.14863797 -0.066438735 -0.14037856 -0.17961118 0.37302533 -0.013263029 0.02123404 -0.1792858 0.10097311 0.058452114 0.088212125 0.076082826 0.043112792 -0.013196857 0.14808257 0.25672728
57676002 0.13279358 0.048405394 -0.018576104 -0.0007554034 -0.1886907 -0.02880108 -0.1420367 -0.056854066 -0.105821766 -0.006804464 -0.037975255 -0.0043482664 0.090530746 -0.05935625 -0.08421961 0.075027466 0.08541906 -0.10146283 0.005275673 0.12795812 -0.05217783 -0.11581923 0.049499374 0.016470347 0.005907212 -0.146778 0.054133896 0.069778636 -0.06803575 -0.027927948 0.13889228 0.06633112 -0.010310824 -0.14826255 -0.011883877 -0.06708864 -0.20842163 0.017497594 -0.047694854 0.13454044 0.03573951 0.08876725 -0.05016249 0.03250936 -0.076225616 0.0063401763 -0.020591287 -0.066934854 -0.06383121 0.12046344 -0.12313451 0.046965197 0.014608693 -0.03090247 -0.1651677 0.16011542 -0.03224314 -0.061837915 0.012986568 0.048458055 -0.168012 -0.045173205 0.011828264 -0.016257022 -0.07189245 0.12330929 0.046955243 0.1297502 -0.16705571 -0.0700596 0.035086174 0.013177144 -0.079637244 -0.057009485 -0.023290908 -0.0007552033 -0.03763153 -0.0870464 0.015935734 0.026214857 -0.0789758 -0.103110306 -0.10862903 -0.07168174 0.111416265 -0.052356936 -0.11389087 -0.14199026 0.30954948 -0.0067600715 0.01901594 -0.14665301 0.081860326 0.05124598 0.07006502 0.064231396 0.04215808 -0.008379253 0.12137609 0.20819037
Hip 0.15555233 0.059921164 -0.018777002 -0.0069637783 -0.22400694 -0.0335501 -0.15892887 -0.061893072 -0.11890084 0.0004756989 -0.046939917 -0.011478049 0.11422322 -0.065945245 -0.086186856 0.0878344 0.09748573 -0.111650184 0.020559909 0.14759062 -0.057971954 -0.1269444 0.06013939 0.0124772135 0.003489462 -0.17657773 0.06785501 0.068652 -0.07616169 -0.035677616 0.16136226 0.071837865 -0.012228454 -0.1599925 -0.021857623 -0.08254174 -0.24675536 0.026064634 -0.055826873 0.15581085 0.040295806 0.1123834 -0.06309687 0.042571515 -0.09494579 0.012530733 -0.014308119 -0.0705509 -0.07879115 0.13180977 -0.13725339 0.051616054 0.024331905 -0.037767015 -0.19355255 0.18636113 -0.03683213 -0.06387166 0.009195067 0.055763885 -0.19239806 -0.043475073 0.010257725 -0.013937784 -0.077282004 0.13388325 0.060269065 0.14424165 -0.19726166 -0.07970407 0.04447889 0.0154982135 -0.09338512 -0.06497101 -0.019226074 0.00919907 -0.041793708 -0.09234005 0.015968617 0.021721523 -0.09495241 -0.11206979 -0.11743891 -0.08681032 0.13680524 -0.06671461 -0.1433809 -0.1696956 0.35359344 -0.009925075 0.029476741 -0.16824344 0.09629481 0.06077534 0.09158835 0.07904717 0.0522984 -0.007909226 0.1339936 0.2317982
cramping 0.13139503 0.050410017 -0.0161111 -0.00237898 -0.19725394 -0.03495241 -0.1506055 -0.056491595 -0.1174464 -0.004099925 -0.04865871 -0.0030032103 0.09556677 -0.061607953 -0.082926534 0.074404396 0.087033354 -0.09636059 0.0049783927 0.1275723 -0.058099378 -0.1160699 0.054066915 0.013235394 0.0074095353 -0.15710834 0.056070793 0.061473876 -0.070002906 -0.028873412 0.14519487 0.05656339 -0.01672263 -0.15000458 -0.014577441 -0.070048995 -0.21817277 0.017444406 -0.054191932 0.1412074 0.038118843 0.10026549 -0.0588115 0.043327842 -0.07903799 0.011825812 -0.015394961 -0.071709305 -0.07052513 0.117072955 -0.1302316 0.04929187 0.015093324 -0.0272776 -0.17071304 0.16343811 -0.04020721 -0.05477651 0.0022342922 0.047646668 -0.1689841 -0.046703465 0.015649695 -0.014074379 -0.07508656 0.12587924 0.051676594 0.13036425 -0.1689828 -0.07357888 0.033553984 0.01328769 -0.07544831 -0.060910698 -0.01369367 0.0043156473 -0.03788643 -0.08144953 0.018096782 0.025613308 -0.08987856 -0.10437671 -0.11641418 -0.082463466 0.12580454 -0.053451195 -0.120864004 -0.14850222 0.321393 -0.012372224 0.023742 -0.14317505 0.08799041 0.050214827 0.083135515 0.06837608 0.045454443 -0.0071147475 0.1283902 0.21257482
vision 0.25639746 0.08677994 -0.033445805 -0.014294037 -0.37523925 -0.058773324 -0.27092713 -0.11104577 -0.216792 -0.0019516743 -0.08546682 -0.007756185 0.19059184 -0.10449866 -0.1552244 0.13516462 0.15605149 -0.1859364 0.018052787 0.24878302 -0.10514269 -0.22845638 0.10250805 0.015681412 0.013804978 -0.29627815 0.10808656 0.12271454 -0.1349899 -0.04468008 0.2700867 0.117032304 -0.04175873 -0.28182778 -0.035367478 -0.12668312 -0.40986153 0.046110746 -0.093464345 0.2684762 0.07601092 0.18843152 -0.09778823 0.07116544 -0.14737563 0.0056309435 -0.037334584 -0.1325151 -0.13146383 0.22744916 -0.2468663 0.100268036 0.037877336 -0.051254105 -0.3204559 0.31748465 -0.07948379 -0.104179956 0.011245317 0.095373526 -0.32641822 -0.08347118 0.016339125 -0.027516935 -0.123398855 0.22818454 0.108855985 0.24411432 -0.31534246 -0.13378568 0.06342472 0.017176354 -0.14864056 -0.10756092 -0.034927923 0.014821941 -0.05930015 -0.1631358 0.031862527 0.05142197 -0.15238641 -0.20025486 -0.20982707 -0.1339722 0.22528245 -0.09877382 -0.2305635 -0.28614527 0.59532434 -0.021599801 0.048186064 -0.28332606 0.15555161 0.08822256 0.14639659 0.124736115 0.08221432 -0.0029167286 0.24259153 0.39424506
10601006 0.059180893 0.026043108 -0.007426085 -0.002535959 -0.09041162 -0.013218516 -0.07278725 -0.024366044 -0.058703244 -0.00088007626 -0.025104668 -0.007514252 0.048892178 -0.034298077 -0.04204613 0.037995562 0.041816775 -0.04761417 0.008216856 0.063022435 -0.02318496 -0.05766096 0.020074842 0.006448618 0.0025840218 -0.06963521 0.02634033 0.029133145 -0.02966143 -0.013004426 0.06699479 0.034832552 -0.0093085645 -0.0636908 -0.002477436 -0.03721013 -0.10183766 0.011660809 -0.019353192 0.06980973 0.022787668 0.044945374 -0.022662234 0.02223547 -0.03381558 0.008105242 -0.009167102 -0.026122872 -0.034459792 0.056010187 -0.06603032 0.022542113 0.00584002 -0.008330165 -0.087853186 0.074915096 -0.020159632 -0.032000303 -0.003382155 0.025505349 -0.086594805 -0.016288077 0.009807033 -0.0060209255 -0.034658425 0.058015272 0.019451262 0.06639911 -0.07945869 -0.03470141 0.014559715 0.0057519944 -0.042255923 -0.030501937 -0.008307232 0.0045698686 -0.020936081 -0.045214735 0.012599345 0.00773143 -0.045083053 -0.05067418 -0.051199608 -0.037244078 0.056025155 -0.028121434 -0.06436982 -0.07275818 0.15706001 -0.0042366763 0.0110120885 -0.071174696 0.04642279 0.025275834 0.031911813 0.034719147 0.025336487 -0.0062257745 0.055356182 0.10009205
loss 0.18433845 0.061416283 -0.026596589 -0.015871152 -0.26387534 -0.043348685 -0.19817495 -0.07054545 -0.15683645 -0.00025163818 -0.064339004 -0.0042053238 0.13169451 -0.07902708 -0.10528034 0.09927634 0.11519258 -0.13453126 0.010882978 0.16960284 -0.07709937 -0.16315897 0.07269257 0.016851727 0.0087682605 -0.21249323 0.07128781 0.092623785 -0.097273186 -0.03424269 0.20092876 0.08531082 -0.017986715 -0.19889343 -0.026583618 -0.096193865 -0.3032906 0.020690039 -0.062456395 0.19227068 0.057524547 0.1265249 -0.069866665 0.04765942 -0.11273613 0.013787866 -0.020695703 -0.093376145 -0.0970201 0.15506479 -0.16926694 0.06519861 0.031108761 -0.032537963 -0.22926892 0.22194149 -0.05050884 -0.08435945 0.012478569 0.07016348 -0.23374094 -0.06149405 0.015879275 -0.01976611 -0.09337818 0.164525 0.07411066 0.17312297 -0.2348519 -0.09390448 0.044572603 0.016957385 -0.10935549 -0.08286337 -0.024216028 0.0044216793 -0.041997895 -0.114801206 0.017807122 0.034270182 -0.116855904 -0.13834521 -0.15319334 -0.10167121 0.16111846 -0.071811765 -0.16591908 -0.20748828 0.42691 -0.009731241 0.032196622 -0.19586216 0.11053615 0.06914311 0.10120368 0.08853403 0.05270251 -0.0062116305 0.1719875 0.2828334
Stomach 0.16472961 0.06543003 -0.027445275 -0.009021468 -0.2469868 -0.043855283 -0.19130161 -0.072270505 -0.14615372 -0.010589269 -0.054833397 -0.00044788668 0.11510642 -0.071853325 -0.09284198 0.09733736 0.105774604 -0.12274331 0.012030902 0.16386643 -0.07678702 -0.15297534 0.061609156 0.019793725 0.0031277568 -0.19748871 0.06192273 0.08732268 -0.0890994 -0.025325349 0.18146442 0.071729645 -0.026873197 -0.18166713 -0.023166908 -0.08687114 -0.2780527 0.029355546 -0.05498704 0.17640696 0.052118525 0.12437989 -0.06943195 0.05346796 -0.0999196 0.010833252 -0.020822462 -0.08816793 -0.09364842 0.15360227 -0.16473377 0.0671572 0.025972215 -0.030163229 -0.21160862 0.20367704 -0.04102644 -0.07871078 0.0015392173 0.06160129 -0.21202718 -0.05270638 0.01125418 -0.013625612 -0.08825853 0.15163714 0.067620054 0.16691105 -0.2186234 -0.086145386 0.044267572 0.015038683 -0.09479286 -0.083487384 -0.026958218 0.0035605645 -0.041701972 -0.1066454 0.014422881 0.033846423 -0.112075955 -0.12952736 -0.1379915 -0.09132927 0.15599503 -0.06659517 -0.15745765 -0.18891355 0.39671692 -0.005197538 0.025721822 -0.1816748 0.10600228 0.06585131 0.10376093 0.08732186 0.053199824 -0.0017003104 0.16228636 0.26590702
309774006 0.09198881 0.030152164 -0.017405618 -0.0085622175 -0.13414723 -0.021056788 -0.09926698 -0.04131527 -0.086015716 -0.00036009162 -0.037152033 0.0010710466 0.067242496 -0.048242353 -0.053699814 0.05506057 0.061963752 -0.063565716 0.011080794 0.08267201 -0.034688715 -0.07816421 0.0414629 0.0032414123 0.0018268557 -0.11266179 0.043569658 0.051382177 -0.05303747 -0.018910008 0.103919104 0.043430824 -0.012516042 -0.100728594 -0.009098737 -0.053330224 -0.14843795 0.016664824 -0.03365966 0.09655398 0.024870194 0.06759687 -0.03408717 0.022056349 -0.052827973 0.0062745935 -0.012355604 -0.049324725 -0.055271994 0.08542636 -0.087327905 0.02949535 0.012727414 -0.01789177 -0.11362119 0.11408388 -0.032820016 -0.037960164 0.009100426 0.03177263 -0.123604074 -0.03359504 0.0034042124 -0.009580115 -0.045712356 0.08112879 0.0348695 0.095341764 -0.11966468 -0.05439815 0.023807183 0.00398933 -0.054754842 -0.048015215 -0.012960099 0.002707936 -0.024854423 -0.058918536 0.014471214 0.021225795 -0.06007743 -0.065165155 -0.0757903 -0.053452644 0.080430575 -0.037214108 -0.086201385 -0.107777655 0.2226626 -0.007958597 0.01092747 -0.101061106 0.05976964 0.030095188 0.05008547 0.048685726 0.029538997 -0.00062976795 0.08826349 0.14489509
49218002 0.14151342 0.048797335 -0.01212962 -0.014242556 -0.19431524 -0.026882049 -0.14843607 -0.05798535 -0.10635772 -0.0055877464 -0.047985166 -0.001609836 0.098315865 -0.058633797 -0.08155547 0.067993686 0.08558629 -0.096533746 0.014719612 0.12882808 -0.058355957 -0.11540421 0.05272326 0.0192883 0.0088115325 -0.15135711 0.060232602 0.061918642 -0.06474917 -0.024479935 0.14087518 0.067789845 -0.01205838 -0.14740889 -0.016138805 -0.063600115 -0.22185822 0.0161724 -0.053129625 0.14300777 0.03435699 0.094008535 -0.06029784 0.0409001 -0.08798225 0.0013573936 -0.021984447 -0.060117934 -0.066404715 0.11760987 -0.1290468 0.05179042 0.024886096 -0.03220735 -0.16770826 0.16562411 -0.03738548 -0.06474871 0.010564757 0.045311123 -0.17453666 -0.045528226 0.0146325715 -0.008865943 -0.074554846 0.121809065 0.047948983 0.12614197 -0.1706251 -0.06821963 0.036075912 0.009586761 -0.077429876 -0.060384 -0.018392868 0.0017080307 -0.040340263 -0.08411801 0.01429494 0.01765287 -0.07926119 -0.107178755 -0.114366435 -0.076580085 0.122609355 -0.062305458 -0.12679617 -0.15553157 0.31682906 -0.009950609 0.016163385 -0.15252985 0.08219883 0.049707055 0.076760046 0.062303245 0.044120956 -0.007882361 0.122903824 0.2089693
26544005 0.105463855 0.0385226 -0.016922958 -0.006491067 -0.1595309 -0.021946086 -0.11645996 -0.041531537 -0.093287796 0.001364356 -0.032769904 -0.0019822782 0.07828274 -0.042921286 -0.06626806 0.05253809 0.06673048 -0.08322208 0.0061442093 0.10302724 -0.044439044 -0.09058195 0.039173506 0.01164803 -0.0015006124 -0.11851582 0.041828774 0.04821509 -0.05791982 -0.026182028 0.114366524 0.04431132 -0.012770022 -0.11624259 -0.016236672 -0.051888824 -0.17689764 0.009515971 -0.032390766 0.110951036 0.03246065 0.07486768 -0.044894353 0.023744512 -0.069017716 0.0026030706 -0.008270169 -0.052136816 -0.060194913 0.09734595 -0.09707498 0.03841896 0.014819054 -0.016788313 -0.12961224 0.12998116 -0.036666375 -0.046867747 0.0046734787 0.040179413 -0.14081997 -0.0366661 0.009756502 -0.010712352 -0.054651413 0.09309016 0.03648735 0.09981571 -0.14034861 -0.05767659 0.033342283 0.0076662 -0.06683752 -0.049943898 -0.008753256 0.0022752 -0.021697199 -0.06699386 0.014577969 0.022682179 -0.061917655 -0.07580451 -0.08342235 -0.05782998 0.09210317 -0.044171922 -0.090414576 -0.11552258 0.24795586 -0.009805804 0.014818876 -0.114549816 0.066626735 0.033565383 0.061537627 0.054328226 0.0283041 -0.0019336567 0.092979774 0.16617364
ache 0.16820937 0.058707822 -0.019642808 -0.013863641 -0.24092458 -0.04502688 -0.18239434 -0.065899566 -0.1402129 -0.008429662 -0.057505783 -0.009103251 0.11188489 -0.067281865 -0.09380463 0.08769893 0.10565109 -0.12612505 0.009438574 0.15663773 -0.07049025 -0.14124352 0.05877296 0.012664368 0.00030630437 -0.19198799 0.06318654 0.07451883 -0.08468476 -0.024816101 0.17172311 0.0715338 -0.018332971 -0.17261635 -0.014645121 -0.086131446 -0.26962072 0.024571322 -0.05792546 0.16757336 0.045569215 0.11990779 -0.05964349 0.05083601 -0.10268153 0.002874373 -0.01631656 -0.07518551 -0.08319456 0.14834146 -0.15954792 0.05640524 0.02656756 -0.030298231 -0.20006269 0.19818078 -0.045190237 -0.06956018 0.0021996445 0.06207965 -0.209103 -0.047447868 0.009393886 -0.019929154 -0.084855795 0.14939182 0.05800863 0.1639757 -0.21035466 -0.07659975 0.048114043 0.011256555 -0.09428582 -0.073523976 -0.020750921 0.0057170345 -0.043341186 -0.103390254 0.018508494 0.0298375 -0.10465512 -0.11628036 -0.13360272 -0.09536368 0.14284436 -0.06255976 -0.1516987 -0.18256962 0.38232622 -0.00833603 0.030127766 -0.17752932 0.099807635 0.05645168 0.09226254 0.080269344 0.048732005 -0.009616084 0.15283076 0.25850743
very 0.20377094 0.07478294 -0.02833851 -0.008283195 -0.29983503 -0.055675324 -0.22500443 -0.08510797 -0.17348538 -0.004666193 -0.0708021 -0.0046766554 0.14279574 -0.08790993 -0.12051196 0.1113788 0.13287158 -0.14698878 0.015074152 0.19422251 -0.09096642 -0.18319339 0.080292955 0.024410808 0.012697139 -0.23110335 0.08813397 0.09871404 -0.105915934 -0.043463815 0.22149865 0.09281843 -0.026720226 -0.22031856 -0.02791765 -0.10511246 -0.33011276 0.034212727 -0.07530369 0.21160719 0.06038827 0.14619963 -0.07832212 0.062031213 -0.12309123 0.013898671 -0.0303568 -0.10457692 -0.10173797 0.17339191 -0.19812305 0.07555243 0.032930452 -0.04158698 -0.25639135 0.2513049 -0.056224015 -0.09461952 0.014413355 0.07845262 -0.2611452 -0.0657238 0.016023487 -0.021887582 -0.105921514 0.18381824 0.07914774 0.2033211 -0.25437632 -0.108574994 0.05033358 0.021063961 -0.11845154 -0.0961556 -0.022912653 0.010499267 -0.055442445 -0.13217089 0.023484174 0.037669584 -0.12937844 -0.15273565 -0.1635553 -0.116240494 0.17702842 -0.07907405 -0.18610527 -0.2319137 0.47550318 -0.017676765 0.037249085 -0.21926558 0.12822331 0.07255481 0.12059627 0.10189038 0.06559024 -0.011537924 0.18992588 0.3216997
Asthenia 0.13412474 0.05227404 -0.02234868 -0.0028811425 -0.20021603 -0.031143239 -0.15214032 -0.058910295 -0.11775028 -0.0093552265 -0.050837804 0.00052390713 0.09971914 -0.056828726 -0.08930047 0.07241574 0.083565205 -0.109872915 0.007453953 0.14183573 -0.06103958 -0.12826464 0.057468887 0.0214819 0.0048975185 -0.16859233 0.062323272 0.07558618 -0.07414978 -0.025770286 0.15060753 0.061441604 -0.018854614 -0.1550897 -0.017877981 -0.077862546 -0.23134825 0.01817577 -0.05551967 0.14346191 0.04739075 0.09675979 -0.055516005 0.03380767 -0.089914754 0.002215645 -0.013377033 -0.07427313 -0.0710069 0.12942123 -0.13896397 0.054393783 0.021478284 -0.03487693 -0.17461178 0.17122664 -0.044133715 -0.06357717 0.01327714 0.048393376 -0.17466855 -0.05213279 0.00889475 -0.019108772 -0.0662998 0.12959096 0.055147734 0.1432584 -0.1749529 -0.06622731 0.03725982 0.0051017427 -0.07816895 -0.07111236 -0.011150684 0.003483637 -0.032188855 -0.09097786 0.013151531 0.032543708 -0.09284806 -0.10858334 -0.11126222 -0.08435346 0.12791644 -0.061266676 -0.12153236 -0.15282941 0.33284727 -0.012004062 0.017076084 -0.15665373 0.085526094 0.05145754 0.07789919 0.07387044 0.036352605 -0.0062921424 0.13126679 0.22321686
all 0.25598222 0.08666332 -0.036730595 -0.01927812 -0.38035938 -0.06697364 -0.27622294 -0.10025718 -0.21042676 -0.0057972115 -0.092182204 -0.00904318 0.1827985 -0.11178754 -0.14836656 0.14268917 0.16376705 -0.19387862 0.026975445 0.24785076 -0.11127155 -0.23019944 0.09194427 0.025605377 0.0067229355 -0.30010065 0.103246726 0.125317 -0.13296582 -0.050499376 0.27412736 0.1157909 -0.029539682 -0.2772717 -0.025829177 -0.1273473 -0.41794387 0.033782836 -0.08922484 0.26208577 0.079775676 0.17590874 -0.10814403 0.07109253 -0.15619682 0.016619127 -0.033920456 -0.12847157 -0.1350731 0.22242746 -0.24319826 0.09573919 0.041741624 -0.04947169 -0.32782367 0.3141735 -0.07721484 -0.11060475 0.010376549 0.08909245 -0.32714835 -0.08584858 0.015167333 -0.026333865 -0.13619205 0.22803302 0.10343021 0.25446743 -0.32719424 -0.1349861 0.07100581 0.019351136 -0.15256533 -0.11983312 -0.029254973 0.011835976 -0.0657985 -0.16309822 0.0278155 0.04571847 -0.15945859 -0.19313015 -0.21600488 -0.13843168 0.22503623 -0.10524962 -0.22660144 -0.28671318 0.5916965 -0.021874193 0.036756158 -0.27615425 0.16098751 0.09425222 0.15146919 0.1325751 0.08238757 -0.01576667 0.24026705 0.3986746
atrophy 0.15532283 0.06248443 -0.028212378 -0.016309077 -0.22616224 -0.04039556 -0.16798101 -0.066111796 -0.13927825 0.0018401756 -0.05910562 -0.009775801 0.11684826 -0.06360441 -0.09649431 0.08557882 0.10384475 -0.11045042 0.013085251 0.14669879 -0.06480245 -0.13994548 0.058088087 0.011152863 -8.364095e-05 -0.18777966 0.057460535 0.081385136 -0.07412285 -0.03619805 0.17277601 0.07156914 -0.013674481 -0.17405944 -0.01967509 -0.0755293 -0.26423118 0.016358618 -0.061422154 0.16480093 0.0400963 0.11486556 -0.06995593 0.040581077 -0.096338086 0.011131118 -0.015996717 -0.073785976 -0.077601135 0.13602312 -0.15305528 0.052197926 0.03002663 -0.03379751 -0.2015823 0.18592414 -0.053335093 -0.07223581 0.011651019 0.06181936 -0.20176728 -0.045899797 0.015118977 -0.022579057 -0.0809312 0.13504425 0.064964995 0.14906491 -0.19382237 -0.077768214 0.038006168 0.013797658 -0.096859634 -0.07105251 -0.023123443 0.006884076 -0.034844983 -0.09856689 0.020790162 0.027715426 -0.098151095 -0.11397916 -0.1334581 -0.08848951 0.13972934 -0.06697266 -0.14157853 -0.17339286 0.3662518 -0.014174148 0.022763954 -0.16510984 0.0947292 0.060023386 0.09154793 0.07768212 0.051483795 -0.013029484 0.14353879 0.24928993
13791008 0.13263585 0.052786198 -0.017934754 -0.0037970862 -0.1897724 -0.026310388 -0.1494905 -0.048027575 -0.11704591 -0.007492025 -0.04415809 -0.008145182 0.08764723 -0.062431313 -0.084655344 0.07373245 0.081325576 -0.095131144 0.015033282 0.12840262 -0.05047345 -0.12222253 0.05223511 0.008841102 0.0052425703 -0.15873338 0.054760776 0.06623935 -0.07429254 -0.030237874 0.14077292 0.061255004 -0.020037716 -0.1451257 -0.02373703 -0.06939414 -0.2132382 0.019314427 -0.04380794 0.13723043 0.04623789 0.08800581 -0.05018264 0.035612866 -0.0838127 0.010607519 -0.014550496 -0.0587092 -0.07145764 0.11594124 -0.126899 0.04718291 0.024314044 -0.029272223 -0.16624919 0.15583621 -0.044159137 -0.05389 0.003061302 0.04826891 -0.1725293 -0.043723017 0.0031922192 -0.009672246 -0.06789809 0.124546036 0.057071175 0.13260399 -0.16279292 -0.07051388 0.042498443 0.0051064347 -0.08425484 -0.062313754 -0.019827873 0.00031592004 -0.031351794 -0.07616111 0.010073456 0.024899963 -0.0783628 -0.095840216 -0.10889022 -0.08048754 0.1202352 -0.04797782 -0.11938774 -0.1477559 0.31343585 -0.015001575 0.02334114 -0.14332435 0.08454151 0.05484421 0.082027316 0.06261566 0.0408756 -0.0019576852 0.11974102 0.21357518
Foot 0.14860043 0.043951493 -0.022563491 -0.0019223115 -0.20692047 -0.029104965 -0.15817043 -0.058531195 -0.118689984 -0.005736496 -0.04565451 -0.007074431 0.10820051 -0.06768789 -0.081038274 0.07049876 0.0839639 -0.10839773 0.011367166 0.12760785 -0.055425175 -0.124746904 0.05560758 0.016161762 -0.0013606903 -0.15486643 0.052394025 0.07274225 -0.06923666 -0.020023026 0.15496194 0.065814435 -0.017001875 -0.15074056 -0.011597516 -0.07202744 -0.22901478 0.024843495 -0.040858764 0.13828075 0.048142184 0.09626117 -0.05939575 0.045028508 -0.084518485 0.008486473 -0.017266609 -0.07412451 -0.076822594 0.123299085 -0.12806961 0.050978463 0.012716497 -0.030837795 -0.17001183 0.16444886 -0.03873938 -0.05876378 0.014693597 0.048810493 -0.17230861 -0.0465926 0.014143366 -0.015961487 -0.07544063 0.1258443 0.050888717 0.1448109 -0.18219694 -0.069321804 0.032826252 0.007873951 -0.08461497 -0.060609095 -0.0104781715 0.0074765976 -0.040152 -0.08251038 0.012804554 0.027888123 -0.08713668 -0.10625867 -0.116176374 -0.07500222 0.12670511 -0.060287524 -0.123683386 -0.15403655 0.32057646 -0.007516398 0.031240478 -0.15593483 0.08584226 0.05443352 0.07666174 0.07378405 0.035350356 -0.009893346 0.13809286 0.2219242
Loss 0.1865563 0.06890275 -0.024453418 -0.017867224 -0.2625199 -0.045301944 -0.19614488 -0.07603035 -0.15675913 -0.0020015754 -0.063619815 -0.0039278544 0.12952226 -0.07737548 -0.105903834 0.10493604 0.11702492 -0.1354923 0.01909747 0.16403633 -0.0743021 -0.1606426 0.06474917 0.014936011 0.00467031 -0.21297991 0.07142458 0.09168229 -0.10031298 -0.03011664 0.19520578 0.085604176 -0.022101358 -0.19457254 -0.025910556 -0.09543795 -0.3026562 0.022027317 -0.0614981 0.18825807 0.059987213 0.13289179 -0.079341225 0.045602053 -0.10454617 0.011952401 -0.022609204 -0.08915069 -0.10102729 0.1489613 -0.16907586 0.075075895 0.026956625 -0.04233319 -0.231306 0.21857317 -0.04671579 -0.08485982 0.005726951 0.06552539 -0.22708371 -0.054746553 0.0118524 -0.019731944 -0.08702709 0.165932 0.075960964 0.17841797 -0.23830266 -0.09166097 0.055129945 0.010809723 -0.10540087 -0.08969765 -0.017086301 0.013256273 -0.050460435 -0.11179918 0.017667504 0.03593592 -0.11865713 -0.13389498 -0.15349948 -0.10791607 0.16655397 -0.074576475 -0.16513097 -0.19886565 0.42467755 -0.005932166 0.030100785 -0.1934343 0.11109084 0.06378663 0.10034869 0.09122573 0.048713017 -0.013274597 0.1654025 0.28474757
47933007 0.120913304 0.04291639 -0.012409398 -0.0067177704 -0.16519432 -0.028670385 -0.123812824 -0.045143362 -0.09934266 -0.0015102092 -0.032021593 -0.007316741 0.08665186 -0.049805433 -0.07151895 0.062138025 0.079066455 -0.09254465 0.010524467 0.10627618 -0.044515632 -0.106132925 0.048404798 0.015489855 0.00019784541 -0.13010977 0.040893998 0.05382558 -0.058327477 -0.02132319 0.123344615 0.05700145 -0.009582873 -0.12149186 -0.01760881 -0.0656786 -0.1900581 0.014012334 -0.041612923 0.12086282 0.03549598 0.08322558 -0.052870512 0.036450855 -0.063504815 0.011811723 -0.014658644 -0.061943352 -0.067167416 0.10610958 -0.106485024 0.046409346 0.011990392 -0.027664972 -0.14067887 0.13769068 -0.031891458 -0.053798143 0.002120793 0.040006652 -0.15121834 -0.03113986 0.0021205589 -0.004909856 -0.06132847 0.112295814 0.046229273 0.11944185 -0.14140305 -0.06331287 0.03770799 0.007935002 -0.07208221 -0.053621896 -0.013916009 0.011429757 -0.03288464 -0.068383105 0.010553253 0.016772155 -0.071636446 -0.09292828 -0.092720464 -0.067455284 0.10072218 -0.04067059 -0.10384978 -0.13363001 0.2701483 -0.0037144246 0.025206672 -0.1342353 0.07794876 0.04370298 0.0641532 0.05647439 0.03956246 -0.0042696497 0.10534463 0.1801246
449917004 0.09302959 0.035307415 -0.0150574315 -0.008613163 -0.14459985 -0.023651827 -0.10277706 -0.04049244 -0.081106395 -0.001401349 -0.032335684 -0.0086590275 0.06740211 -0.044406403 -0.05581675 0.056001857 0.06047166 -0.07001948 0.0076956977 0.08882765 -0.034943957 -0.08150757 0.039464284 0.010533305 -0.0005286514 -0.11042149 0.033953037 0.049348306 -0.042961877 -0.016371097 0.10221976 0.03975537 -0.0065866658 -0.09931912 -0.005657344 -0.054047987 -0.15516761 0.019309713 -0.04074625 0.10049026 0.026648877 0.06918415 -0.037421677 0.029190877 -0.053051624 0.006752015 -0.016281927 -0.045688268 -0.05047132 0.08048969 -0.09394399 0.041405044 0.012918315 -0.018801225 -0.1216665 0.12312554 -0.027959336 -0.04475883 -0.0005171247 0.030226175 -0.12196844 -0.033176716 0.0066321576 -0.013263164 -0.054526947 0.08784744 0.03181881 0.098941624 -0.12489205 -0.046597693 0.028393783 0.013368529 -0.056176003 -0.04458471 -0.006634216 0.0037974175 -0.022985814 -0.056020025 0.012517625 0.013686346 -0.059268378 -0.07119331 -0.07367636 -0.055085868 0.08595605 -0.042571276 -0.09479475 -0.114163175 0.23214145 -0.013602693 0.018889977 -0.10616799 0.060437594 0.031981923 0.052039433 0.051878523 0.03531817 -0.0015921347 0.08583768 0.14622283
Knee 0.13413264 0.04902902 -0.023473585 -0.002917451 -0.20252778 -0.03164228 -0.15034686 -0.057018325 -0.109869845 -0.006992639 -0.04994869 0.0030816451 0.10339464 -0.0582611 -0.08378361 0.07332249 0.09111876 -0.10452838 0.014309918 0.12432238 -0.059098564 -0.11508869 0.04984565 0.016946768 0.010439692 -0.15969688 0.055030324 0.06628531 -0.074729264 -0.03055748 0.14705949 0.058893453 -0.02037839 -0.14683335 -0.011416623 -0.07450208 -0.21992679 0.015284258 -0.040916905 0.14027967 0.047425035 0.0912052 -0.057236932 0.04167517 -0.087468795 0.007184924 -0.019475183 -0.066113845 -0.06348778 0.11305562 -0.12661189 0.04915809 0.01635621 -0.026658691 -0.16804227 0.16185427 -0.045203976 -0.062529586 0.014837691 0.042022783 -0.17607915 -0.047211386 0.015000011 -0.01861638 -0.063028865 0.12675503 0.051508177 0.13914174 -0.17481191 -0.074371375 0.04331756 0.0071665314 -0.07964001 -0.0566325 -0.015604274 0.0067395507 -0.02990367 -0.08146294 0.012646969 0.030916017 -0.085070536 -0.09891348 -0.110894434 -0.07003299 0.12261968 -0.051847782 -0.121859975 -0.1585568 0.3072157 -0.009454347 0.027378509 -0.15089129 0.083563566 0.045513067 0.080210105 0.07542921 0.045186378 -0.0032042118 0.13266692 0.21755129
Shoulder 0.10921008 0.037173916 -0.014067975 0.00040481123 -0.15484723 -0.020611657 -0.112376094 -0.050071627 -0.08339371 -0.0016959787 -0.030906476 0.0010580799 0.06877271 -0.04886615 -0.064089075 0.053196646 0.07136003 -0.08078068 0.007993844 0.102264196 -0.04890559 -0.094674796 0.03630849 0.009807177 0.009670382 -0.12335527 0.047699157 0.056749333 -0.056813814 -0.02504759 0.11238723 0.043924816 -0.008971061 -0.12061544 -0.006055927 -0.052244704 -0.1788494 0.018806769 -0.036888197 0.10458436 0.034024857 0.069272645 -0.04487314 0.030684566 -0.058860686 0.011267605 -0.015685875 -0.058610357 -0.058107715 0.092041165 -0.1046022 0.037375767 0.011741922 -0.025824877 -0.13404058 0.13381813 -0.03336108 -0.052383732 0.012641527 0.044687692 -0.13143247 -0.027496297 0.0046212994 -0.015443984 -0.05495011 0.1054541 0.046159465 0.103946716 -0.14342685 -0.05442202 0.027211407 0.014746669 -0.06797858 -0.044724867 -0.012901708 0.01034541 -0.030427579 -0.065979786 0.009057054 0.016642265 -0.06470509 -0.086702384 -0.088275746 -0.054974973 0.09366248 -0.044536635 -0.09442251 -0.120266624 0.25414437 -0.004523478 0.0186216 -0.124437705 0.059542205 0.038889572 0.06312771 0.052188847 0.033506002 0.0009207525 0.10327082 0.16780172
dull 0.21823795 0.07808595 -0.022830285 -0.021840997 -0.3193972 -0.05597362 -0.23906055 -0.08669077 -0.18016571 -0.011305391 -0.078429826 -0.009247098 0.15905815 -0.09885857 -0.13450137 0.12723628 0.14361505 -0.16056181 0.017582044 0.2114503 -0.09386066 -0.19725518 0.0808349 0.021306338 0.0072574704 -0.24983528 0.096448734 0.10285076 -0.11819931 -0.04310662 0.23157176 0.09594096 -0.022623362 -0.24105582 -0.030646363 -0.116547115 -0.35647732 0.028270489 -0.07062042 0.2274034 0.06734905 0.16374117 -0.08649624 0.06464422 -0.12992132 0.013600357 -0.02734249 -0.10628944 -0.10712985 0.18284218 -0.21062635 0.07630578 0.027896415 -0.04771023 -0.27764606 0.26250848 -0.057799798 -0.09731864 0.021419141 0.07557195 -0.27980113 -0.0743949 0.014084957 -0.027395986 -0.113570176 0.20075786 0.08781331 0.21613733 -0.27807295 -0.114690915 0.06048647 0.022722276 -0.12896855 -0.09754043 -0.03478771 0.008527035 -0.060805168 -0.12972091 0.02976853 0.03820206 -0.1357296 -0.16556993 -0.1840341 -0.12198889 0.18464124 -0.09340232 -0.19593325 -0.25341427 0.51102763 -0.015552674 0.029766172 -0.23612076 0.14625685 0.07407732 0.12445492 0.1162203 0.06639023 -0.010070929 0.19915277 0.3373999
30989003 0.111196935 0.036044396 -0.011260701 -0.0048887483 -0.16608489 -0.02562956 -0.12018481 -0.048822556 -0.09261635 -0.0024064835 -0.03992658 -0.0075421245 0.08782739 -0.054826774 -0.071441256 0.06300838 0.06755121 -0.08629164 0.008850251 0.10479517 -0.04072596 -0.09725482 0.039226986 0.01268051 -0.0004259599 -0.12615107 0.04280278 0.057477262 -0.059529528 -0.024077497 0.11941811 0.054217134 -0.018871577 -0.12822163 -0.008250534 -0.062587194 -0.18860848 0.014968064 -0.037136458 0.11605996 0.03717717 0.08238585 -0.046758905 0.029906297 -0.0625318 0.010537885 -0.020192435 -0.054461103 -0.05548188 0.095628664 -0.111831225 0.035560038 0.013254731 -0.028842453 -0.1379397 0.1361795 -0.036242783 -0.055964258 0.0051126787 0.03733138 -0.1433189 -0.035165783 0.010453952 -0.008986804 -0.05367137 0.10619165 0.044004373 0.10754426 -0.14533621 -0.058373317 0.02780232 0.0072441027 -0.06776197 -0.05295402 -0.00916243 0.0048395223 -0.02588259 -0.06753377 0.00716818 0.021163616 -0.07070983 -0.08720829 -0.090884216 -0.06464437 0.105529055 -0.039777033 -0.10612028 -0.12728795 0.25985888 -0.011583476 0.013020585 -0.12245106 0.07279231 0.044331443 0.06523429 0.052831557 0.03234581 2.1430684e-05 0.10627293 0.17152028
neck 0.114790805 0.046547923 -0.019319259 -0.0008173957 -0.17006595 -0.03157532 -0.12918502 -0.044800293 -0.09870352 -0.0070823953 -0.036478575 -0.0052981465 0.07747935 -0.056685295 -0.07263139 0.06627802 0.06655789 -0.08089792 0.008044644 0.10844395 -0.0403871 -0.10535222 0.046602957 0.014001091 0.0022087544 -0.13647161 0.044167373 0.053475037 -0.06088434 -0.018969655 0.1176421 0.05452496 -0.01619328 -0.12714465 -0.019885307 -0.05305071 -0.18857856 0.022018125 -0.035401475 0.11354134 0.031586517 0.08274502 -0.049769152 0.031358857 -0.07294073 0.006660957 -0.0146314865 -0.060331926 -0.06010595 0.10253117 -0.1111557 0.042349674 0.0107317595 -0.025560454 -0.13928385 0.13648827 -0.036669236 -0.05205658 0.0056201317 0.042809315 -0.14259784 -0.030998636 0.012077358 -0.007906597 -0.06033177 0.0996572 0.042041764 0.118142806 -0.14350612 -0.055687 0.028797759 0.0033666652 -0.061262045 -0.05050134 -0.010289827 0.0074282554 -0.029345693 -0.06956228 0.008469935 0.019104023 -0.07058787 -0.087139644 -0.09586088 -0.06815774 0.10352738 -0.04626426 -0.10293395 -0.13288626 0.27144095 -0.011127878 0.022919383 -0.12297519 0.07900229 0.04623686 0.068599895 0.06339764 0.03602962 -0.0032210443 0.10709757 0.17819622
Backache 0.09986069 0.038860537 -0.015557617 -0.0059514837 -0.13815418 -0.019680733 -0.10683376 -0.03978751 -0.07677616 -0.0074133747 -0.033209108 -0.006043242 0.06337426 -0.044585362 -0.0638743 0.05470695 0.06719843 -0.07589096 0.007578472 0.091143325 -0.03808205 -0.08735383 0.0334403 0.0064574867 0.00294213 -0.12007537 0.047126517 0.04162147 -0.050209932 -0.018957807 0.10267031 0.03691986 -0.014425128 -0.111140326 -0.018513601 -0.051774595 -0.15723905 0.020059353 -0.038209904 0.095820434 0.02357373 0.063544445 -0.043219693 0.02921369 -0.051545005 0.0016829778 -0.009587616 -0.04098026 -0.04781439 0.092489794 -0.09302276 0.029528596 0.006977502 -0.02517395 -0.12380058 0.11277546 -0.027126579 -0.03888262 0.00912321 0.037532765 -0.12982354 -0.031977497 0.0073241293 -0.010524922 -0.048164036 0.08699362 0.03148339 0.09277289 -0.121586286 -0.042772036 0.027373902 0.0076778354 -0.05856986 -0.04922432 -0.011928501 0.0047150343 -0.027170638 -0.062450532 0.00466216 0.010488735 -0.0543077 -0.07377868 -0.076838605 -0.053668354 0.090450235 -0.043340772 -0.0885678 -0.11320513 0.23349285 -0.012381383 0.017877279 -0.10419336 0.06842933 0.033651967 0.04988959 0.050190575 0.02354554 -0.0047299373 0.09345942 0.15233172
Mentally 0.19681863 0.07671347 -0.021293279 -0.012964281 -0.28601086 -0.056136314 -0.22434664 -0.08495442 -0.15707184 -0.0022641409 -0.07295466 -0.014296032 0.14603136 -0.096884936 -0.11298466 0.11108223 0.13108893 -0.14018086 0.019500986 0.19525301 -0.083786435 -0.18307407 0.07398975 0.023516962 0.0121972095 -0.2275193 0.08762808 0.09840442 -0.101074815 -0.043185186 0.21538948 0.08834764 -0.023422252 -0.21221918 -0.021311076 -0.10350414 -0.33017597 0.02578905 -0.068715215 0.20244797 0.0542637 0.1480894 -0.07629202 0.04975067 -0.12498382 0.014003273 -0.031289358 -0.09925748 -0.09762314 0.16556492 -0.18883324 0.069506764 0.033136643 -0.033394232 -0.24281906 0.24337159 -0.049181174 -0.0847919 0.021260263 0.06447232 -0.25855148 -0.06297005 0.02285507 -0.027248401 -0.096199945 0.17160116 0.075764716 0.1936676 -0.24465995 -0.098435014 0.051870845 0.022278842 -0.12412842 -0.0861157 -0.031293675 0.004402242 -0.045601837 -0.11929659 0.024637261 0.028349511 -0.12380365 -0.15237048 -0.16253468 -0.10392777 0.16756542 -0.079895146 -0.17308526 -0.23195696 0.45626578 -0.01773615 0.028876659 -0.20795634 0.13301393 0.07661386 0.11451898 0.10355943 0.05273361 -0.009184184 0.18701443 0.30873233
88092000 0.11839049 0.04698058 -0.023693753 -0.010273083 -0.17695686 -0.028767157 -0.12908548 -0.048661534 -0.1023566 -0.007436858 -0.044895496 -0.0028501737 0.08339676 -0.053052694 -0.06800459 0.06157383 0.0814595 -0.09267542 0.007230535 0.121629655 -0.056193892 -0.10932771 0.040848967 0.00639013 0.005711742 -0.14534613 0.04829661 0.06346025 -0.05719896 -0.0303288 0.13048956 0.060779706 -0.016826129 -0.13492543 -0.011269687 -0.061813872 -0.20599204 0.012167065 -0.048179418 0.12984857 0.0356202 0.083261736 -0.05558824 0.036659997 -0.07097594 0.0051271887 -0.012071108 -0.06129403 -0.07014818 0.099446476 -0.11838468 0.042864256 0.018903624 -0.022550749 -0.15553272 0.15274784 -0.037549302 -0.052444343 0.0040054196 0.045218565 -0.16070989 -0.033325914 0.013795052 -0.011306024 -0.06301517 0.10436401 0.048468247 0.12280091 -0.15217048 -0.056816425 0.02877876 0.0099292295 -0.075170115 -0.05371058 -0.015141918 0.008533764 -0.0275621 -0.08006522 0.01049157 0.02660957 -0.07337803 -0.09255203 -0.1036483 -0.06586356 0.11300426 -0.048568714 -0.113545485 -0.13061547 0.28987414 -0.014289874 0.020934945 -0.13776022 0.07249613 0.044025883 0.0691542 0.06184631 0.040148478 -0.004508379 0.109271355 0.19365406
Headache 0.15218623 0.053675696 -0.024544196 -0.009869768 -0.22527803 -0.03556843 -0.158636 -0.0547516 -0.118933745 -0.008125805 -0.04424054 -0.0037301995 0.10421448 -0.07362537 -0.09562601 0.08153585 0.0889585 -0.10932496 0.010450502 0.14291513 -0.06724842 -0.1318941 0.05029698 0.010502761 0.010290353 -0.16665809 0.060391266 0.07754524 -0.079733536 -0.03574387 0.15524392 0.0713092 -0.025218625 -0.1626517 -0.013574836 -0.069702715 -0.25061285 0.018680174 -0.059609286 0.15140633 0.04179514 0.10945613 -0.05887988 0.037893638 -0.094678916 0.009101593 -0.021012567 -0.08012386 -0.07428404 0.13677864 -0.13737789 0.052415933 0.025153546 -0.025973009 -0.19288163 0.1757321 -0.03971992 -0.061955895 0.011586639 0.060664114 -0.1884434 -0.051414654 0.00926905 -0.018062089 -0.077531375 0.13022706 0.062489934 0.15349634 -0.19329536 -0.07967287 0.035838284 0.013805814 -0.09070841 -0.06813919 -0.023726663 0.003358849 -0.042660344 -0.09647097 0.02313388 0.03059061 -0.095237084 -0.116873816 -0.12706676 -0.0821112 0.12758964 -0.055289272 -0.13327412 -0.169354 0.35330254 -0.010035584 0.022734605 -0.15960248 0.10017951 0.059976928 0.08812164 0.079232305 0.049576208 -0.008395018 0.14451945 0.22815979
hair 0.1931061 0.06931615 -0.032628674 -0.017968459 -0.28552267 -0.047194067 -0.21885991 -0.07843454 -0.16289179 -0.005400283 -0.07009869 -0.0030368932 0.13782555 -0.09082715 -0.120407246 0.110027015 0.12109143 -0.1465 0.025074696 0.18068613 -0.08035954 -0.17307739 0.0711507 0.024328116 0.0011596035 -0.22651213 0.084429026 0.0946596 -0.101228595 -0.03840297 0.2096782 0.08711632 -0.030808644 -0.21214035 -0.02816861 -0.10682064 -0.32452485 0.023465687 -0.06589428 0.20004804 0.063332476 0.14604233 -0.08257224 0.05226677 -0.120486915 0.009060371 -0.0278762 -0.096691765 -0.10184011 0.16501528 -0.18884408 0.0814471 0.033228986 -0.045202576 -0.24458976 0.2398158 -0.055060677 -0.092521995 0.015422116 0.07524063 -0.2482307 -0.063638315 0.00963449 -0.024449833 -0.09948857 0.18459263 0.07804303 0.18956538 -0.25793558 -0.099716485 0.058554355 0.009879474 -0.11892905 -0.093674496 -0.026155025 0.010749565 -0.047661446 -0.12103441 0.025094785 0.041055817 -0.122377366 -0.14690487 -0.16374937 -0.11888299 0.1741318 -0.073343344 -0.18207762 -0.21618798 0.45380393 -0.006143995 0.0312372 -0.2122929 0.12882568 0.06390995 0.1141147 0.09502037 0.054885022 -0.013014617 0.18143673 0.3123344
161891005 0.08943448 0.034197796 -0.01169169 -0.004636326 -0.1228334 -0.02476535 -0.08644581 -0.031200234 -0.07235165 -0.0036544213 -0.030030366 0.0022028033 0.067059994 -0.03282232 -0.051592164 0.04081208 0.048264872 -0.06520715 0.0019569679 0.08583562 -0.041130878 -0.07567536 0.03457459 0.008706011 0.0044601294 -0.09227872 0.028895669 0.03627515 -0.041438065 -0.011295195 0.08865919 0.039663948 -0.012157751 -0.09614816 -0.009634873 -0.03827022 -0.13520484 0.014983474 -0.026499987 0.091607675 0.028515566 0.05414325 -0.03166452 0.029309059 -0.05360242 0.0052733496 -0.017622301 -0.03532842 -0.044705804 0.0692639 -0.08622811 0.027673598 0.013554371 -0.011168561 -0.10082418 0.109242104 -0.022370853 -0.035139125 0.00039471034 0.030923054 -0.10485683 -0.025950529 0.0008253474 -0.005470732 -0.03930377 0.083462305 0.026381494 0.08767479 -0.10599283 -0.03963896 0.018727666 0.004584893 -0.049933054 -0.038402576 -0.006422077 0.007220278 -0.01799736 -0.05529649 0.012990834 0.015156052 -0.04598987 -0.057298046 -0.07237573 -0.05369767 0.07095042 -0.035359938 -0.08258502 -0.096511945 0.20132221 -0.006600905 0.017862707 -0.09039957 0.049718756 0.028814673 0.04323706 0.04689019 0.028783912 -0.0015413986 0.08161824 0.13230811
sore 0.14185745 0.054182276 -0.017801046 -0.004631191 -0.20499833 -0.033167183 -0.15802114 -0.053312346 -0.11556351 0.00045911415 -0.04451825 -0.0074527483 0.10241713 -0.063409664 -0.08305444 0.0766565 0.08900886 -0.10545452 0.010041067 0.13652793 -0.060460184 -0.11918734 0.052707627 0.011380111 -0.00054825685 -0.15781662 0.060807362 0.07164073 -0.0739456 -0.026860796 0.14789562 0.068865046 -0.020189846 -0.14896543 -0.014017977 -0.06738467 -0.22658004 0.02120806 -0.047264826 0.14200634 0.038242497 0.104389496 -0.055289626 0.041036244 -0.08462864 0.0055828304 -0.02025409 -0.07111681 -0.069113694 0.12255834 -0.1335395 0.05214476 0.023898454 -0.026235433 -0.17883351 0.1725671 -0.04304731 -0.058479387 0.004247698 0.053245053 -0.18203507 -0.041518517 0.0075757615 -0.008370523 -0.06908105 0.13209695 0.054156553 0.13659418 -0.17622523 -0.07618175 0.040344432 0.014502971 -0.078004375 -0.061013564 -0.019680552 0.0061515733 -0.040979505 -0.08571107 0.017661158 0.028165556 -0.08863418 -0.10054978 -0.11819063 -0.07843121 0.13016759 -0.054134544 -0.12450747 -0.15684333 0.3263511 -0.013436769 0.019574713 -0.15868574 0.09239943 0.056260332 0.08269245 0.06859397 0.04104424 -0.004385356 0.13046359 0.22285832
419723007 0.17383593 0.060083035 -0.0154271545 -0.01652329 -0.24844785 -0.036735944 -0.19014478 -0.071534626 -0.13919838 -0.0043586954 -0.059870668 -0.010099304 0.11742521 -0.08050729 -0.10554254 0.09524749 0.103379555 -0.12176537 0.01628263 0.16438639 -0.07355677 -0.15038837 0.058971304 0.018297816 0.008945419 -0.19716148 0.07317092 0.08177318 -0.090377934 -0.034302708 0.1801573 0.07803196 -0.025027007 -0.18797569 -0.022206599 -0.08773807 -0.27782926 0.026414402 -0.058198735 0.1746635 0.046063744 0.123575404 -0.07092805 0.045762453 -0.10613276 0.010895343 -0.01665673 -0.07986398 -0.08552333 0.14494756 -0.15244606 0.05841795 0.030929642 -0.031064361 -0.21456262 0.20686837 -0.045244783 -0.06987276 0.017331038 0.064787716 -0.2145384 -0.05188869 0.01781882 -0.019327402 -0.08473454 0.15551656 0.058322307 0.16390264 -0.21175124 -0.09089294 0.04546063 0.018531568 -0.10241 -0.075538814 -0.02442129 0.0006868587 -0.04268929 -0.10756545 0.01987988 0.035186164 -0.1017244 -0.12555559 -0.13782027 -0.09024716 0.13982062 -0.07445975 -0.15580533 -0.19262718 0.38248506 -0.013511134 0.03088466 -0.17734188 0.11352143 0.059648104 0.095961 0.0810952 0.054931946 -0.005540571 0.15969405 0.25732815
